encog,BasicNetwork,java,3.0.1,1,1320881552541
[BASIC]
[BASIC:PARAMS]
[BASIC:NETWORK]
beginTraining=0
connectionLimit=0
contextTargetOffset=0,0,0
contextTargetSize=0,0,0
endTraining=2
hasContext=f
inputCount=42
layerCounts=1,64,43
layerFeedCounts=1,63,42
layerContextCount=0,0,0
layerIndex=0,1,65
output=0,0,0,0,0,0,0,0,0,0,0,0,0,0,0,0,0,0,0,0,0,0,0,0,0,0,0,0,0,0,0,0,0,0,0,0,0,0,0,0,0,0,0,0,0,0,0,0,0,0,0,0,0,0,0,0,0,0,0,0,0,0,0,0,1,0,0,0,0,0,0,0,0,0,0,0,0,0,0,0,0,0,0,0,0,0,0,0,0,0,0,0,0,0,0,0,0,0,0,0,0,0,0,0,0,0,0,1
outputCount=1
weightIndex=0,64,2773
weights=-0.5549719443685815,0.16437362832090424,0.21288747236534672,0.3017245355839898,-0.23229922077918766,0.3098223648633651,-0.21210711558925913,0.5580916710830803,0.04050044931902584,-0.13273473603738992,0.26984933042977416,-0.23180930415203316,-0.11535529412666645,-0.7775419859533498,0.07241471320200578,-0.26003841917552084,0.08393197921452791,0.16810329468135837,0.5758535459590983,-0.16420166878596648,0.11099287865990248,0.42273668617008164,-0.34081409685761765,0.4797177349656587,-0.682017311070402,-0.8197854348268785,-0.4977986727423606,-0.15263846488192448,0.32550352592345566,-0.5139077214525287,0.3863788190400587,-0.2201976495419459,-0.4818921096734685,0.10787102492464279,0.7068801170861243,0.2918950334060743,-0.36202704425014626,0.7130817531291465,-0.4776661689928763,-0.47287011626533576,0.03740920481559801,0.11360041783478596,-0.40144314948515225,0.0860571772097841,-1.0654044540735852,0.2017546904264669,-0.46509725639315397,0.18522736554189,0.3009335538665879,0.3652980788252061,-0.3054756564225989,-0.34471682689290306,0.05625905578745881,-0.15241075917068764,-0.7474349600535747,0.1842926434116377,0.4280233294870255,0.30777871743253415,-0.488879159396262,0.24151641970339227,-0.30528657596328884,0.3503477106360265,-0.05473304929977949,-0.14504320114929142,-0.024378509619609696,0.20444970841353216,-0.1961643481912081,0.1529888278305704,0.03235242027875508,0.7117835081021453,-0.020564528479497912,-0.024793707351488795,-1.1097838779638867,0.0005297660407851194,0.04082074240503192,-0.1878035979224692,0.5860717695092068,0.09502982554447445,-4.541592450507322,-0.06937414025877076,-0.42201959669654554,-1.0197224424437943,0.38865062106486825,-0.06083220244180619,-0.24409598564928328,-3.2113600237882625,-0.47167873524210546,-0.10649335999619458,-1.1111380842120266,-0.7859361519276364,-1.3250531679404673,-1.3658187724264759,0.36124138867563316,-0.6269795680622012,1.743411458376507,0.274198463779529,0.20044092194869667,-0.6469687192117894,-0.39742535550040775,-0.037335555316204555,0.015341143187050307,-0.15933507847063963,-0.2766975742805035,0.1684972609588619,0.5244081619497849,-0.34165881410161425,0.07976973932779367,0.2976379262817577,0.43586962128398343,0.5229947806524582,1.7311141134529653,1.2722793514327797,0.03053416730698886,-0.15721704099648343,-0.17883176912116552,0.2872831367725735,0.7633703367870449,0.17453416212058329,0.3881107177063652,0.19096388561879105,0.3360287392434587,-0.1997666516741197,0.1103019278570877,2.8974254523889376,-0.928594630815663,1.1123222481251935,0.1901886203335122,0.1591725699711515,0.40381571398897576,-0.4211455746610568,2.506347501314672,-0.7704456265764972,0.4884034231843132,-0.49514228804056265,0.027217486570856698,-0.09236636890087377,0.18579125946035685,1.2415738121631095,-0.12071280172225098,-1.301848644180256,-0.016736250227553894,-0.2839110468969423,-0.023270657984113572,-0.515258977719514,0.8636797878340251,-0.3850604732302742,-0.2855721637975507,-0.8446630755868039,-0.2753379523674996,-0.5733812083475439,-2.5183872276812287,-0.5828007633804058,0.29278229483021534,-0.37214283884225086,0.16356896251510414,0.14880634801079892,-0.31252588477484156,-1.1895763780878044,-0.1555180696164363,0.6178685608349277,-0.20649472084020185,-0.19447462665292858,-0.45341999611715833,-0.024711744984178035,-0.17274291707251965,0.39565030968757475,0.335543487529848,-0.6307228400579785,-0.05458192637575987,1.1333671761400645,-0.2833797779586711,-0.9087096417790461,0.1923700737759993,-0.8667963075975332,0.9486515910917068,0.527402682988029,-1.336509906932119,0.27663162168145417,-0.33507052843558427,0.3733557284238501,-0.14345262136305706,0.20766278026215884,-0.038586926455767105,-1.1741142209739759,0.37274195369682506,-0.27081910175178114,-0.21491328899892836,0.12435802501885716,-0.25988140041197416,0.3849684796636928,-0.7132584391196659,0.1976320505440278,0.021668550679556985,-0.017458121907304985,-0.13682309668571396,0.16749248132156214,0.1593564899689247,0.11059089540890481,-0.3392121837413984,0.24105360988708138,0.0036194741064725284,-0.1084470281068178,-0.07386961630892172,0.26353613013525806,0.14097274864041112,0.17356838328136875,0.3081463783935212,0.1464317228082488,0.005866483247415721,-0.08067955159328805,1.3506654494615937,-0.9709695255689859,0.13477697162669575,-0.06078267208541672,0.8052847815299191,-0.12134172018185191,0.6937266505410931,1.554218047664044,-0.2528141285319541,0.6159795313483855,-0.06570929812680365,0.46918519085562804,0.2519480918918458,-0.1415573573399308,1.133702657721442,0.34825797847458595,2.0082615288445576,0.7870810323730945,1.0347578773805544,-0.31264183266039813,-0.6200405964916293,-1.1515032799146143,-0.08814522028238263,0.34923786624355657,-0.045588130183448816,0.01593144539038266,-0.2048369262686728,-1.3922095223201947,-0.1715451469133685,-0.26087156327579053,-0.20143102506220373,0.04144860182151876,0.10737277990410272,-0.40441882479425895,-0.9376548461427171,-0.9253277740951105,0.05963619934927476,-0.13285761154440529,-1.0418013020874062,-0.0768973028620219,-0.9704479282591313,-0.5030436245540953,0.13626982879451552,-0.09662549727138943,0.5561068779930016,-3.022838256426067,-0.15843401322162148,-3.3544729241553384,0.05822693607681666,-0.4604225845301694,1.1288632166138268,-0.915403929994203,-1.178823440774212,1.4013985264380986,-2.265529705834846,0.6596432791890355,0.1907413939722978,0.012705836685726281,0.5914126665064361,1.0390818518675555,-0.540724531894553,-1.5515223119167565,1.345610347264785,0.3339130211005205,-0.5138460836810627,0.8356412686136415,0.2711698418729711,-0.7489273904727392,-0.010633847157029915,-0.011669209296672697,0.32460930425518114,0.34276944413464466,0.08029841452635009,0.2794240594268276,0.18263253729547263,-0.047126609752688585,0.05895777708800103,-0.13153913762447914,0.10118851759881588,0.5581034017954212,0.1791842405771462,-0.06308366974832057,0.22914266605677636,-0.9090209062226858,-0.0493755724212885,0.2182455945503913,-0.15880051749572657,0.9639631123904936,0.04859615114917243,0.14110957299719487,-0.11781262785545306,-0.045507670093967355,-0.4839628579324631,-0.11906962144157159,3.020528739436584,0.23760131514839045,0.11258969555839958,-0.08785375710369539,-0.23222276622767338,1.3481255065010787,0.5017754710042172,2.3314625017266093,2.1291361097726296,0.12645302960847715,0.6666505119731215,-0.3717191188634419,-0.623406357409373,-1.0364201682726064,0.11677107775513076,1.3104206301065688,0.6619670131093927,-0.14717332416549583,-0.22528713363818323,0.41434637737435076,-0.1475785491989644,-0.10711848382665409,0.03125811396088233,-0.16621892269838576,0.17334918994508686,-0.18153530992527683,-0.19670482871728032,-0.24123161254849912,-0.10296398168166862,-0.06676359179803601,0.18172759076944855,-0.25319237781775095,-2.2338677967609026,-0.47599494012673477,-1.2638860877031386,0.273774485488304,-0.11777275054715695,-0.006270610324696191,-0.5261371541472843,-3.334909148446972,-0.5580028926116277,-1.0205701616727534,-0.9110927440438125,-0.2622680185963333,0.22085064165521232,-0.2676742342961763,-0.49757190601462387,0.898970120423309,-0.13296662534026277,-0.5214401193882992,0.14928470901415983,-0.2136959781986708,0.10719365809897269,-0.4863340559657682,0.7710603197501146,-0.843001894076859,0.7942185247083752,-0.009314823881600548,1.4360966065163994,-0.6778114461759739,0.14102960907399112,0.1830960636303986,0.40455407812841865,0.05009104976556016,0.36981018848836794,-0.34249767850395985,0.6116017567442995,0.19591228775106073,-0.1584938486872916,0.43084418147884196,-0.09590696536038823,0.186773645004266,0.26584685766351274,0.29717448902410565,-0.031350752813279904,0.003162666054407183,1.3019071669850872,-0.13150656357033635,-0.1334842188279013,0.025390009309908045,-0.019232448644029,1.2999275273837385,-0.057816869129580443,1.3252836241719341,0.5286070860983342,0.8325161050748929,-0.41165983297192993,-1.2767411787882406,0.9847820768540909,-0.1458156227953305,-0.05744041014494187,-0.027210172656446974,-1.2523511191613155,-0.4962665193213561,-0.35041653692889657,0.3997692846414586,0.22009476204710635,0.1852799439190665,-0.55157747973216,-0.3732179428642917,0.4373140420282235,-0.3648384684896584,0.8348854225194452,-0.057173256705157625,0.12648050452502246,-0.27933482011310834,-0.16691893939185182,0.0003929568244810569,-0.2605006665706739,0.129960143773478,-0.857886866977238,-1.1263041021426636,-1.0938063200258954,-0.23536690351344136,-0.04722430191156962,-0.3735679636855588,-0.287379654490368,0.10953997625219047,-0.05252023131790872,0.019801254431598962,-0.2681555917910383,-0.30331079394910915,0.04591670526578253,-0.20206367423100283,1.2584870602358431,0.10887281529300127,0.18469133627040996,0.2366796016381413,0.0324815492640842,0.2346079935178639,0.03962186308183345,-1.0656281255087987,0.9300307051416885,0.9447926128729391,-0.26714546885303847,0.020136660397349293,0.9536403527048484,0.8307837446444137,-0.9121320759470116,-0.29139409442994224,0.7194053001774038,0.3044098673830999,1.1576419186697706,-0.7067218542603818,-0.6758485969455722,1.517184997823154,0.26721561675846756,1.3046357851747277,1.3451144932510242,0.4539410408023386,0.3920169159628395,-0.7662456266775012,0.5383537970053104,2.214921342890329,1.428744677748269,0.43735829350688304,1.1356129678782039,0.054278559208811354,0.0024738375159495435,0.047105925618292785,-0.866924242338413,-0.3223692357366649,-0.1502847984775996,-0.5377972683492037,-0.04441679443261337,-0.036787770961194836,0.7155551908579587,1.4354311484081208,-0.5459267599923451,-0.891467863916995,-1.1167637777228059,1.2223409529406835,-0.8385664766624403,-0.9997805215212302,-0.09133147192260103,0.9502530882950034,1.1781826085453244,0.24839953015320645,-0.12898509292366261,-0.646358323888214,0.5990463356531657,-0.7470897928912077,0.06380077101580817,-0.671042763571047,-0.42946677387934074,-2.262696523849268,-0.5442249992939882,-0.07436323884918704,-0.6627383371414627,-0.15351954221872488,-0.19771977134555077,-0.2475956158403068,0.007112957563210545,0.12687364960991074,-0.04570226035165498,-0.3749124140761503,-0.7997649322683207,0.028653012546191268,-0.44205633709177394,-1.4348494726163756,-0.18929073922856618,-0.14399314950122263,0.1379205535200335,-0.16077400774694217,-0.14492692224110099,-0.08518455938215887,-0.07066049935193693,0.24377628016039268,0.011987876344068532,0.041205738974288114,0.7343761982057018,-0.7624643773627896,-1.5145305566313803,-0.06228853907207644,-0.7555501674059536,-0.21710280505418386,-1.3400368411706012,-0.34314715733305207,0.5193105391329816,0.8499648432049629,0.8355061822593046,-1.6304622200866914,0.24960263204928812,-0.0629063879907907,0.7362158285132951,-1.3685329683678504,-0.5410336866986909,1.219990269748695,-1.2202000290419357,0.5419871102215783,0.4192272935305306,0.04793428678132102,0.09374021436303763,0.202076311806345,0.06550565237202194,0.6925004891196618,0.10929665031991578,0.21816332990339968,-0.1599856508369306,2.1396243992142736,0.26246007711016994,-0.3556358576659141,0.2305974358866135,0.15650913603753852,0.6004514975192848,3.653030914752202,1.0991433492947733,0.09089951546668444,0.7089243992839758,-0.20075342671259166,1.0467544116990033,0.6480533071196218,1.0863128013413341,2.443717666644884,-0.24104452541268478,2.3277962134798407,-0.5902346406094442,0.8554276718956898,0.0791656234171658,0.41232893710291996,0.4222899727416302,-0.5989273584967152,0.2819819001502622,3.4252958088092216,-0.05898539750321182,-0.35762474956399065,-1.2439524639504316,0.07402234155245135,0.16226150226159486,0.7915106568151583,-0.5256081203817851,-1.563815716610737,-1.593600377177807,-1.0453765510223016,-1.8182662727940582,-0.18875121703921505,-0.5270363180066409,-0.1911547915727375,-0.6724571162465405,-0.5737155951196473,-0.3919764620576418,-0.49256977214268777,-1.0028871658598484,0.2476964268080521,-0.6894444400299755,-0.25379956450979413,-0.30926096880892084,0.0055620783006880845,-0.13244455283310116,-0.052820503979941924,-0.17876828393271763,-0.82697198249542,-1.818847462254252,0.5724088071865162,-0.7832645759540335,1.5352326503090092,0.3311510273823565,-0.03529623787717938,-2.1665644107445154,-1.1793703274828315,0.002419693259705584,-0.2991126819505033,-1.6792969714654267,-0.013556652887440061,1.026165579307452,0.2755668536423354,-1.3482895437499416,0.07458169640612694,-0.37585990913565576,-0.06091782842874784,0.17207551618647254,-0.4259129464887948,-0.9586313607563828,-0.3725449721126103,0.9346903975178464,-0.44945276347322766,0.6027199622081243,-0.768698673102467,0.18107967762155155,0.030664928452676408,-0.09474921500386314,0.31788704621037606,-0.1337885737672619,0.076853730314527,0.1917371310540554,0.058803112463309354,-0.02054514604189195,-0.07121710604813276,0.0008905072165305119,0.18021360286497543,-0.12659081277324777,-0.10403773057117241,0.15976171656898577,-0.3381328048972272,0.25252464751433407,-0.052214779863771855,-0.6207526297956701,0.17229553094347871,-0.06190298270800847,-0.7673191551358056,0.13065326008714706,-0.26221780970736175,0.24575582380271188,-0.03557051557708673,0.286953878340228,-0.07476786369696738,-0.37555103689734504,-0.7487332953190107,-0.6753071987986807,-0.429301513120652,-0.2932752232521121,-0.04900942034338975,0.056677713319966086,-1.1852699436979202,-0.8307319872483724,-0.7406610755196928,0.15399975501996252,0.6930196444114154,1.2078269297689095,0.46051971499168953,0.254304167656025,-0.03493650916299048,0.29647091245037194,0.09689125787984776,1.2312800266227617,-0.33276351068141413,0.0658893298042596,0.12883612513243264,0.0611414952632726,0.5109490171641263,1.9372614203112806,0.17211719512272516,0.1888311646050642,0.19390677994613298,1.3551760913595137,-0.03024997622253185,-0.14486430370163328,0.8017727106798256,-0.5371121910604447,-0.46124753679769886,-0.0006309779420362583,-0.04266237641034782,0.41009347734645046,3.484566080071999,1.0608370920756087,2.7047044047533815,0.5924316549332558,1.0605090886963595,0.3168709221252019,0.5782709188849737,2.410130087483356,0.1741695626541764,-0.1496205499393498,0.7962837864217432,0.38860649035095923,0.6679816316758902,0.1091981161691716,0.15980588535881574,-0.3359931084258983,0.6712376274296674,0.11908581794926912,0.3838832440671818,-0.21654309857827686,0.5383837053808105,-0.09725884164775868,-0.1502586008529167,-0.027788015712139,0.11844162545708535,-0.20307101310112902,-0.0874144288795748,-0.2353450034861244,-0.15904496264936954,-1.0507731182382114,-0.39532671188277946,-1.0992298695243372,0.05235924360763217,-0.17439510138298836,-0.22123233071817358,-0.013708903710934098,0.06319131103124483,-0.295379666769624,-2.183866971650088,0.742323336816504,0.5967157156958376,-0.2987009841361266,0.29256555268314305,-0.11898985245307209,-0.004585018368054311,-3.8835738792793,-1.8292165559487343,-0.20935759158659806,-0.160920308574403,-0.21854055541006615,0.624692926424017,-0.9900095507515237,-1.147179918995512,0.03050292399615985,0.6494757687173295,-0.8600220038976455,-0.5493745025824397,0.28156013690196335,0.5423452488083913,1.3453478060223347,1.0960538008457545,1.1384206252533726,-1.0760817089809285,0.8112198350466194,-0.011748059778079937,0.14162614126023917,0.14377611226135142,0.08178158068577408,0.268290592358453,-0.01711306712331474,0.050939574855818966,-0.23548287925521966,0.26481099449213763,0.5200101255564505,0.22846428832776997,0.09012725080590436,0.04148197568084134,0.0718914862771891,0.12591899747208157,0.31738662766766557,1.1057990883573188,0.28982352479279855,-0.6431576915885817,0.22855399876368312,0.388458526995781,-0.1428759849005083,1.8454691023515335,0.25154311559562803,0.9747878310612131,1.1149021658309124,3.3388380058727924,0.53918956780412,0.1440152574781729,-0.43838943982570083,1.1970579980112541,1.269795735863957,0.10940258451806119,0.7405416390681285,0.7705185112460214,-0.8190630114478643,0.4109604880674661,-0.06951431887689864,0.7834000536851432,-0.4021283738236211,0.27875932332170184,-0.7004619521043004,0.7178463135205669,-0.19825678700589563,-0.4855910045178316,0.49433018258341377,0.05994920201501463,-1.539224128148071,-3.0317575200008613,-0.16076588832218527,-2.0910703176698187,-0.28918719326613135,-0.5880622906385465,-0.04749400268962733,0.08760807490772465,0.8316398369832091,-0.17695225824901534,0.017258392521765455,-0.19857190965313182,-0.06584081992959628,0.08949384212253643,-0.511526871982871,-0.6511473686867405,-1.4496070840237112,0.7194185129979455,0.9897754663563973,-0.3333629512480038,0.17662806821278884,-1.278691148071574,0.9860115985776238,0.7158561546068662,-0.34345274584814667,-1.2809898462724496,-0.797742176335073,-1.3400747031302336,0.11897697283596999,-1.1841478420094609,1.1695858446195866,0.1447739923412417,0.5126679384884557,0.7287796866266946,0.5850073152886405,1.8057343640702883,0.8314914292195776,-0.7279746156195072,-0.3401943389944364,0.2811575047865559,0.22889179323313597,0.009089099347590657,-0.10456888056920745,-0.18981265631886238,0.2671593093872414,0.10059352735963813,0.06407980505765494,-0.050259373811018145,0.3253817247188775,-0.2567572937040899,0.10000215331146049,-0.28349689733033423,0.22915447047895648,0.31541118738397006,-0.2716078887104758,0.16750780397324208,-0.1413375851269458,-0.28568695718840537,0.19480363097753964,-0.13390705323738838,-0.6002365066434258,0.05148186195345418,-0.014788660363569033,0.39900774337793904,0.28449333787399,4.824517828532005,1.0925426453773452,-0.05624155515933915,-0.2634419577790269,-0.1165948867302085,-0.2630389069500176,1.4466927498296958,2.0473629791161314,3.37342368449974,0.15403554802199831,0.37477000225236345,0.882533399779227,-0.33754284933409306,-0.642235807897052,-0.04015740355448008,0.23747647710024816,0.5740332011879046,-0.08066167650408317,0.28607891680705727,0.2019098738288856,0.08785430138390707,0.14685856228092775,0.01959518119021518,0.5963798748872531,0.8773691907720125,0.31739946493527676,0.0670128245996008,0.3894367933474872,-0.10777448333213463,0.8264374317864649,-0.17286685979381583,-0.13011483509892308,-0.018502771900439165,0.0803474861122384,0.4311481870090342,0.07570228988334729,-0.08330735727859838,-0.4052754194196168,-0.25343750625521416,-0.2372525665163537,-0.2159854451880905,-0.0004966990943150235,-0.2060797839621399,0.05778873781922255,0.10118171673900773,-0.4452339301605054,0.6268190332231557,-0.3204232465462991,0.6541132864263941,-0.2705722506182556,-1.018078426813298,1.1332102045397807,1.2086910515955704,0.22157865510545405,0.3140523893799718,0.2229621082109464,-0.794621218438923,-0.12004168780075751,-0.4777457500730477,0.19869661802908087,-0.270699278662242,-0.15544898912799224,-0.10458642414192165,-0.3863046679411272,0.004056282084382531,0.2458106062333978,-0.17990700184827058,-2.542683757537852,-0.21000496031775723,-0.23664894439297343,-2.1147216635981447,-0.5411781257755229,0.12431817721770491,-1.9872725339329655,0.07456337274889972,-1.2873458383001222,0.18772192641134652,-1.4836239375632834,-0.20567222535130997,0.1227847958339893,-0.47335410451637594,-1.010267231796947,0.2609549990727877,0.8480270203885649,0.7202205187660379,0.24151993478977282,-0.5811292198358889,-0.09053082197157473,1.3381512782218097,-0.026177679587811038,1.2038650116599934,-0.8365195110680715,-0.7499278608934173,1.2983012684092585,-0.4799942517512576,0.00999525625935705,-0.13673593085919666,-0.6921250698739936,0.3722683776051304,-0.19260592279431102,-0.549846307962151,0.8063660427983439,0.3587106327851288,0.36560938315913233,0.16487454059579149,0.019867351979734542,0.27269571653416164,0.005968963461837846,0.040452797256854106,0.16576772295097705,-0.23807099202495596,-0.013394103063173603,0.06522646914058103,-0.1650185370757727,0.19827105276156923,0.19366005406104728,0.2604154521818547,0.08227437561223361,0.15834879408489258,-0.09675771660106622,-0.06204154296714264,0.013196731174747813,0.1734116646059091,-0.13136861079578607,-0.19322409358160927,0.03468465685674076,0.3837479426685386,-0.08594882291725188,-0.33356758550218424,0.992974657122946,-0.10909872936197447,-0.6534677375021516,0.46699511753421263,1.80551505798749,-0.1263212266216239,-0.3260928993849354,1.1216592752601515,-0.5381209168454114,0.3651732571980752,-0.3554662513033159,-0.2694137886932675,0.7273655914110031,1.3266557879391627,-1.336745272746093,-1.6583230857226947,-2.9781513504364967,-0.008511481584814599,-0.10991325462896032,0.5749235793281381,-0.009622213676830107,0.20748578544524182,0.6022917576708665,0.14426501286563725,-0.01768099621083302,0.4265092066642521,0.445393103777189,0.15286299205412268,0.19992754163742477,0.6397163707815795,0.3243860654796401,-0.7930427665030418,0.8895444451345539,-0.15277990202391242,-1.2263476333871584,1.3200125339753108,-0.47456776726091193,0.2814282602471666,0.8442135662918296,0.044347539795343754,-1.1486101036063543,0.7611662124088324,0.29879930077591993,-0.056921847333533414,0.08321586981056724,0.30457805865139653,-0.8385969604751463,0.9860615405148291,1.1283105086695664,-0.7472397291585013,-0.14377556331429153,-0.08520174267728575,-0.5369357627784666,0.019040035260258402,0.7668073019205055,0.03889777725594649,-0.7578324570024721,-0.23591635857248536,-0.01553068241791425,-0.929834406800406,-0.13904161127228531,0.16505098303842086,0.17180961066704975,-0.16832678793173314,-0.12583128102503582,-0.19450218882730266,-0.22338728570775654,0.17797547973968975,0.13668677749995653,-1.158095220821419,-0.33224917671672155,-0.10424318586328074,-0.038911948378491615,-0.42944660793886197,-0.11293888834683627,0.00533268081880296,0.011299091446974602,0.08674491324729991,-0.12112357107975621,0.16140557234906405,-0.23770089372630931,0.3871142773150598,0.01849025352445406,0.0770308309573794,-0.4515914084736107,-0.7727703582728003,-0.06035394701062346,-0.13434470022929493,0.19093794223535987,1.0348300715392424,-0.3891524076798985,-0.3967481326143175,-0.08030196470417922,-0.041433719514285344,1.6797062168137369,0.19253943078537109,-0.7419937592651195,-0.4490096799310856,0.8550629900703626,0.0441497936677884,1.267861071505601,-0.21402913194585121,0.750128607952904,-0.13075657028244617,0.06987019562780417,-0.13222069396934263,-0.11569319913842328,-0.05443459875497625,0.054163953440511656,0.03822987926266203,-0.1581702175745198,0.07583503024317576,0.16619838571285891,-0.18561326757726557,-0.029272352880632978,0.020164410074702602,0.11295249800220952,-0.05585943377757829,-0.17233594194968224,-0.059096881028514736,-0.20044567100628805,0.40034338753963683,-0.05718168300638429,0.07124156054749946,-0.02764311051757025,0.14140285403637098,0.14125385687065126,-0.014753188663583291,0.02840056872691955,-0.03412530352572498,0.18734380451021618,-0.3426948119092266,0.48804330443020216,0.10361044336116472,-0.17087174076866665,-0.017179147270045353,0.1542972747116435,-0.23069450314373108,0.5045076962844691,0.5241455682402952,-0.35093959274865894,-0.14379577759952736,-2.281394566316022,1.2116205861530986,-2.1122705570598184,-0.011333028217112266,0.06818943421869961,-0.077652914498807,-0.04711976790344672,-0.024631539921320954,0.12914029857316514,0.14598263257331134,-0.16067268618844752,0.10556761816292323,-0.3364644708467362,-0.10539607127252887,-0.23993897746133794,0.26262511909211994,0.04222745154488365,-0.045478106752124804,0.09442356739109108,0.0809448699940697,0.09807195027519774,-0.012090235958384044,-0.19047650857413584,-0.12320057934698038,0.03484673938918856,-0.18205289373040462,-0.1221642563405456,-0.19520008163708108,-0.28198759666879425,-0.12803461942395736,0.9650655960242523,0.06279415599238355,0.14608069025531045,-0.4274908007845392,-0.19460833451972046,-0.024782971474313267,-0.07828736666324929,0.3039826081131791,-0.0964954170871542,-0.09246041599490658,-1.1884545777163136,0.029219611825941516,-0.7518378983364074,0.07678509149912353,-0.5013070789945355,-0.24978382733829813,-0.13515090206079067,-0.24741706721330511,0.09364490311114561,0.21991431696275837,0.18605256413466853,-0.07765660437610031,0.1694609617098465,0.0619104652338988,-0.059840576973548276,0.3718015202109094,-0.0047081720506680904,0.06989836413244398,0.14242786527161955,-0.029879735081823285,0.16673525379156054,-0.056228426976014004,0.1680587406439256,0.1336882262040618,0.11963432094993379,-0.16145546888397122,-0.1425751738799986,-0.17020165659639885,-0.24976712586204838,0.5835577830421879,0.7329259307650445,0.413111762626404,0.544552590323358,1.112313508401497,-0.03211486762307408,0.2988028630223184,-0.03439324751827789,1.1075879973020464,-0.0481876976405634,-0.18865018167426434,-0.1052145794921427,-0.5042179130439561,0.02500397251916469,-1.0520688560304932,-0.8594294378850379,1.108162190285537,1.9946101321905687,-1.513705315391844,0.6409662531375737,0.13823197022945183,0.025070460760715396,0.2571951514310974,-0.027692746926375657,0.07577761869007751,0.4281946515282694,1.2949161107350662,1.6370098470909749,0.031219684413252385,0.3508381953820325,-0.39883115994083534,-1.204839417921449,-0.3339492683216776,1.5845206056996486,0.2266989936075588,2.44516360569796,-0.20895950105327266,1.8251291176342777,0.7286654875445393,-1.1105706400387725,3.024705231423329,0.8563477404945194,-0.2505637403699181,0.18731459805690204,-0.9857223223233145,-0.2898692133349241,-0.47801796131909047,-0.9895173073489043,1.2272651352458426,-0.13824590448415405,-0.7396968408702909,-0.6803118034609651,-0.8474776433574539,1.9905456795586864,-0.28637725303765166,0.24961819645090105,-0.2900192539608361,-0.7891018599420363,-0.07968800181769015,0.4483635287383825,0.9455486996197852,-1.3506422889469663,0.3541522841888112,-0.8453797128666034,-0.06732572065526313,-0.03173918522425217,-0.12693293737318917,-0.09135789235306609,-0.026067892471340705,-0.11309429565587253,-0.3185733091002155,-0.5375154209765965,-0.19210195144104888,-0.45917521038469394,-0.04434049363507598,0.09984104255829432,-0.65502371403994,-0.2861284105649182,0.266499618805766,-0.6425171419747953,-0.5089394598867749,0.1644126048302742,-0.20385296844997544,1.0710898599113705,-0.22925208135989317,1.0732084778432038,0.4133298163732384,-0.14594424406392592,-0.4808873985672344,-0.004505739446277514,-0.3244106127606917,0.5535062858985835,-1.4024456319459275,-0.6689302479131555,0.7945980369413492,-0.36249595529070705,0.40369183054839114,-0.4682957702250163,-0.24062490503004635,-0.6613842210715457,0.0408936497219968,-0.020017089339560513,-0.38682867091370954,2.2066415651949165,-0.06370003823182818,-0.28323187643504155,1.101794813131761,-0.013536846411204602,-0.003961904124805939,-0.016412292877749427,0.2268993306023796,0.09756332765608383,-0.11049650285277887,0.14734862131639356,0.16204009914903875,0.1440673912583032,-0.07765092137674734,-0.06348801699218898,0.07108214937100794,-0.07809842822232439,0.1860596902802517,0.027816894606532888,-0.11071830053325793,-0.1881473200527179,-0.17023137724443926,0.03690730378175663,-0.12078536098146306,-0.12738909895174866,0.5161952683531627,0.1592277315949429,0.2170075977616733,0.0398676761344914,0.3613678611501458,-0.16304638410943795,-0.14968910016109738,-0.24975509833615683,0.5905761027887261,0.28413826613632287,0.11880718790401694,-0.5022139325810291,0.17165008656115452,-0.16748363640695035,0.2065355487810059,0.8787161985873231,0.6876731261658215,0.521864640052937,-1.001489265749258,-1.0819788403406885,1.5756928439595703,0.07835079661186342,-0.1076596006808325,-0.05589884472842024,-0.17895098028466966,-0.03794438906283094,-0.033991796462230675,-0.14227030694212664,-0.09658656333088791,-0.8924033964457811,0.212475747354655,0.0037520826175975715,-1.4403652882281548,0.053827198220863,-0.18799052751647227,-0.3243315805394415,-0.2657715814906094,-1.0802997362411366,0.08544063951456722,-0.022622561429051714,1.155405227868028,-0.09626050060161774,0.011323901810856532,-0.21193066618960316,-0.2397794103700558,-0.11925127009508098,0.33802498519089524,-0.11163997499938913,-1.0731561483292391,0.7710342021559066,0.7490669588987096,0.4802852067470705,0.26438476489377677,-0.18919833904685857,-0.054374660376629746,0.19494616069473278,-1.2003319267977013,0.10835158258995171,0.6740277438899759,-0.11314136689078001,-1.3335277693217016,-0.386440726296017,1.4720570909758122,-0.7632518492694267,-0.4338719632663741,0.05991572374162138,-0.19517062275998667,0.01866649966568932,-0.0541335322997649,-0.25719431961921646,0.02368928118109152,-0.19127198974769952,-0.07238991284343511,-1.5695049734745141,0.05083823552592189,-0.11034700574052746,0.057335311584116005,-0.24040268618027463,0.0391046464141369,-0.17539253906676944,-0.1477460093496427,0.09735650478497966,-0.14626301052647878,-1.3897279682783878,0.1973010050578196,-0.08270137846943683,0.2370915456934736,-0.4252696182658009,-0.5301385241402806,-0.11569436422654057,0.019205655211057767,0.13571768361537057,-0.06935883425112836,0.3313988361360126,-1.5844009017915828,-1.1092496293497291,-2.8713712159096283,-2.4067249540349365,-1.305192453916477,-1.7616833153946598,0.1904726613272217,0.532076337981483,-0.39098887456021536,0.3170499881531195,0.42841065254672905,-0.4646098696387395,0.2675340432846092,-0.39683465334587287,-0.07983756398694969,0.22456456220918358,0.014181577731659557,-0.1215174018249457,0.23424583682758954,0.34852569952327506,0.14874227254993497,-0.0638912360448624,0.052156269550558805,-0.7018479683949767,0.5023101152895202,0.21613109225794866,0.5784718179967057,0.05909950965845068,-0.004474063847152434,-0.3303370356316276,0.160853376899676,-0.027071210703845314,1.141554750968216,-0.10145270083571276,0.07406205704141913,0.3338671922213583,0.8167087129790681,-0.39305065608743134,0.8165834028850791,0.8727813530692823,0.0939323389233712,0.25688249612490965,0.16880472401162797,-0.2783203869367312,1.6079517591064156,0.2731756119205729,-0.045753756352076964,-0.3494116726658523,-0.9382930589052711,0.46193891979735563,0.31374148362802323,-0.7805047650225387,-0.11693222115527878,0.6563720169770353,0.2659477665270063,-1.5989964667361618,0.9268198229082137,-0.12620391006149378,-0.057084837806786436,0.1471384297037565,0.521951824645903,0.0830103446618134,0.2723216505436835,0.05592642926270731,0.2534762420079629,-0.2775605874587006,0.21725421451623234,0.6925384695486201,0.09009256183345021,0.11364336804793404,0.8341677721314649,-0.09511915848938826,0.5221463714785946,-0.20279103447214553,-0.17169653121068623,1.3581287666768154,-0.37571386001317975,1.996849166287259,0.071232425071386,1.4902675001148462,1.0441904797584458,1.5466990227910218,0.8216252623984819,2.6672965990354194,0.1662895038575575,-1.1146971342348644,1.6054105446748084,0.41659569272549146,-0.2961268242928011,0.44968133982018776,0.4002490696794171,1.7518002062863867,0.5470032294004802,1.1561853034874174,0.034657655392595015,-0.8009187081995148,1.2091251457223033,0.7207537702263609,1.0767282439899653,1.2773995075094775,-0.05626099389824646,-0.15103468044043222,0.0032755499722952057,0.026773900562492924,-0.09895095674351177,0.0568576549885098,0.1657178011520912,-0.15013147394341345,-0.33813427386048867,-0.7188848242117098,0.09415093995428152,-0.008199571358390074,0.1425041005849286,0.03168921071950099,-0.15778190196529085,-0.1859056160213065,-0.0034838417061141677,-0.16203160222734864,-0.2029542728434078,-0.19225574095812348,-0.1406044793900307,-0.06934749444069192,-0.038940472972069824,-0.32038669000586056,-0.1595815889187459,0.4942592261687045,-0.7547970418942719,0.45649497254155186,0.5534289536403967,-1.064926961900519,-0.29276501955491613,-0.6648943022032473,0.059779414010754796,0.4376016033938475,0.4560388283283486,-1.3344716082062422,-0.29705019889808126,0.37470273671208304,-2.583660529062358,1.8656248206405377,-0.8783853163247486,0.12581513849368553,-0.5032714525065923,0.04304641882732818,-0.24943749449885982,-0.08138995387991722,-0.0902950419349083,-0.22868496320979384,-0.13331442454114592,-0.07428018106480302,0.15653110840574452,-0.4994923583433369,-0.6965611487004377,-0.49062113187410183,-0.211245944129829,-0.06562894135594345,-0.2355908565441348,0.19150026163619496,-0.12649220840583922,-0.2977970100871844,-0.46315547839691074,-0.8144399305249186,0.1442427019787468,0.08608635692807112,-0.4430040696272428,-3.161428312736854,0.054821129651031766,-0.9416516329029069,0.4699241546331178,0.09980171105663438,-0.7523840595226059,0.25924524615904504,1.7015591001628168,-1.555252868308147,-0.2246832558820566,-0.8016002331199968,-0.9340518637794286,-0.18608338647633443,-0.9711378498424723,0.5565717020024348,-0.576093744277398,-0.6875153547708938,-0.3843021800250594,0.6598841963582385,-0.5769865870815358,1.5116353044920525,0.044734880263988676,0.03828034415618157,0.06548358610551618,-0.18380174587050993,-0.8862767079619747,-0.23203212900692768,0.03126593822590325,-0.019632151394575845,0.18598245774826183,-0.4881741894819315,-0.8135885533564946,-0.356842919635193,-0.24336911736702954,0.11933935896074552,0.036361934617313296,-0.6907919999395673,-0.045181737096909716,-0.37681631360997175,-0.12586209458473116,-0.13026542825174997,-2.1867749871454842,0.3155928099502711,0.16601843494718455,-0.5802113189909367,0.3629258698010694,-1.1104770517104379,0.029094652020847826,-2.0737298355416383,0.0549015078905699,0.7104044282923008,0.4024761851899971,-0.4069739106770436,0.10878025400246348,-0.204115310559792,-2.0466481434519284,0.005488990953744073,-0.5811961657956698,-0.4048354031735658,0.19910070673112135,0.0008333156551883622,0.31227434109546304,-0.8110470947702131,-0.5789897392054871,0.24057601961486952,0.00925457256595326,0.05612177990437762,-0.0005290021089553923,0.03958824662200768,0.12444289942749634,-0.04946452935052222,0.09558713385924637,0.2123502735205911,0.07951933908682976,0.15697246401868115,0.01728466601696928,-0.11194551680560975,0.012068579705852012,0.002520624375858045,-0.2852979962537286,0.36451358994858146,0.37140006909445344,-0.2544702712350933,0.34667599314219366,-0.14404261887963066,-0.13068340327466016,0.11916686197756707,-0.10778478701063367,0.38457854162740357,-0.37749740779631014,-0.10873161112705629,0.09904267593078349,-1.1736690766516125,-1.7185432140582904,-0.2691267523831388,-0.7136065600440137,0.45524016473892764,0.091603961895539,0.355683071896389,-0.11275115218011836,-0.6706689350185486,-1.3238000405453882,0.6847013249367495,1.7199877589195671,-0.31477287741412546,0.16053266979340822,-0.5336874579558075,-0.07631168755841823,-0.2766124706650653,-0.18051537699935974,-0.16372020893732342,-0.14259828061370222,-0.10287524583417115,0.07872491417213318,-0.019193904744196588,-0.256732204557935,-0.3895308878528166,-0.4200106196529774,-0.049964000659423885,-0.745517616803879,-0.11811703218667288,0.27521186053644175,-0.3291241372815019,-0.13286917019807945,-0.01524057333608771,0.622241356869039,0.36161009717113207,-0.10758574549558898,-0.21658783664787573,-1.4675562749434026,0.4991986559145839,-2.014846454530514,0.18231938243357015,-0.9955603808869098,-0.17260687025512048,-0.8835757274331889,0.530204783223101,0.526224745120867,-0.35831908991075845,0.26265033607690086,0.022667845292517537,-0.2786802684369691,0.1544506255107,-0.8058939410344599,2.0797890152428846,-0.3931880987767637,0.7359749990734703,0.2649468689638291,0.7107728689731357,-0.9639186709543001,0.16667710546684575,-0.05032538206310965,-0.6166444567675898,0.11597842316108048,-0.01768319665844383,-0.29037901739809047,-1.303752279034544,-0.09966961908293233,-0.2792545465755615,-0.156926007214298,0.01723411570707059,-0.30216274409585864,0.024484240312575713,-0.9498997849175729,0.04923225607149705,0.38910070783154954,-2.058548869331051,-1.2836443402935538,-0.02590653990292522,-0.24130463323671864,0.07309791812247685,0.722581252851579,0.3920309824884469,-1.3236362693837114,-1.8637717911687104,-1.5184485511583585,-1.4149408020450702,-1.50192592290292,0.757832467788488,0.13086951048184567,0.011589707730217986,-0.2594700244715599,-0.8748348068459749,0.264934645247976,2.1985554568713446,-0.2611044208792785,0.1999255938098279,-0.33955955693102147,-0.7777716554693873,-0.39381584674170006,0.021716623665638958,-0.21526706931301548,1.2520033506401258,0.28784345668036465,-0.001153032750752799,0.47777490983267645,0.13622733956197644,-0.01764586982813877,0.3656103030189595,-0.0742580060161429,-0.6324305458053882,0.693681973501041,0.6449506687296547,1.0149880526051296,0.18907647028176447,0.31344510621793503,0.20253582547957477,0.01862071390938889,0.04366392142761505,0.21591197102362863,0.08356339492562229,0.3849195175316974,-1.4054709546881152,-0.4159975321415081,0.5929194539105676,1.6696419228488322,0.2680759502909209,1.9339428252922626,1.8804282675580808,1.884793849069608,-0.3315945370736817,0.26194034292519147,1.3127510013501633,0.6142064133269587,1.7499411904188191,1.8587428889140976,-0.16165039192246922,1.5964262480509583,0.5456250145400621,1.529826394205893,-0.8202716104909253,1.1515157921731154,-0.26630499877128067,0.1404485783387664,-1.1051934140846733,0.6748439761301583,-0.05228619785610956,-0.3366401538819411,-0.44020043633482925,-0.7980907606213086,-0.4853412757724311,-2.032345799637284,-0.38624578059776743,-1.2568065878756602,-0.27074139992132523,0.06566683986823682,-0.18281070059323093,0.34456635604006186,0.32495953880980893,-0.023633275195662818,-0.13392636670482475,-0.06473557347928592,0.41771668457319117,-0.3296885790403678,0.562199435937347,-0.6346816501382425,-1.5143368991442696,0.1444065895302008,-0.03777115423623208,-0.6340341319644129,0.11496069282791752,-2.9844765879919977,1.8399634323651672,0.14626011688239113,0.4989803940901338,-1.323357375923103,-1.993052461098719,-0.9127849745907275,-1.0121043409064643,-0.08700609074485141,0.04378993843294646,0.10898349578263647,-0.2958895093914763,1.1877221505256104,-0.05875856239867733,1.2129591229844914,-0.1020576383420998,-0.528595416529537,-0.4615799530325106,0.2712030031570712,-0.20578820194121702,-0.2625523315123944,-0.14451282779592092,-0.00911785983686335,-0.20537207089104106,-0.018522362381117586,0.047034703133965,0.5587222488864426,-0.032431849624332584,0.015410508845357159,-0.8472843517822686,0.027771764397930058,-0.33590756258535803,-0.1361674949170766,-0.18693007227747152,-0.09375282641248919,0.00048806430875581266,-1.7593739181737154,-0.25750634708039954,-2.5173419245238122,0.9358692215943791,-0.21950622751800478,-1.1237995200432895,0.27255470799946735,-1.5516704922881948,-0.25453146875707106,-0.5121230967677923,1.0780835348266988,0.42711973690636096,0.23095931449110535,0.013242476903843689,0.5337582882841083,0.687807634266913,-1.8985377584113103,-0.04029617795637261,-0.6682803775935796,-0.5670714667267689,0.49946972254693306,0.2858054868587123,0.19341490429703856,-1.3259263578587837,0.18282395013357508,-0.023960517439052916,0.2784907219847065,0.10928536492101855,0.003049503883610436,0.6237958566848596,0.10365084619487998,0.21704408321480978,0.1284090534297912,0.4022892627883759,1.4155005939763103,0.6245824588689883,-0.040042181369548985,0.23972556966079137,-0.04769950842251047,-0.07949122512352085,-0.07634361222398409,0.2664627013271925,1.1142361941780785,-1.2593994626341187,0.40420522855922836,-0.019526820535039027,0.14243621623554806,0.028430658548045072,-0.5413221044409614,2.190454708189466,-0.14741650888212515,0.4483873096140299,-0.4494024020305184,1.1833911229472065,0.12112972579059807,1.3312824243234374,2.8479256751898774,1.6132223302230515,-0.18569345320410327,0.0016537172453192136,-0.3266002835253423,-0.3999730644584959,-0.802237247105717,0.15871793585287386,-0.58303465523847,-0.3908868394521587,-0.5368451569996269,-0.31313432428233146,-0.24937351551411546,0.05720153630069111,0.2080116830190863,-0.20986185011141045,0.17217890604598032,-0.16817981869743967,-0.1129664419739548,0.23162496436885197,0.24611827020270044,-0.1540938304447458,0.38504222174850156,0.05832677327276371,0.12103517768244065,-0.0849652301768055,-0.13229708295047105,-0.056508417790963,-0.08445049146421668,0.07140232688689994,0.13200639723314164,-0.15012275224898905,0.3989434922931023,-0.20381818982098995,0.17992476498084867,0.321790128862316,-0.184703443548612,-0.015366376980233458,-0.06403549956009649,0.031161075772849045,-0.3342275234243846,-0.15586424717850195,0.3732286236136123,0.02180569100703268,-0.03309933049530872,-0.08008063170525576,0.4120155521770527,-0.46824900524074775,5.206248471002754,-2.4128370277203373,-1.8747141582035125,-2.1121651285127596,0.2061569391375558,0.17983824893772707,0.7068925088537461,0.005676164867437377,0.008667667733231068,-0.26396651953059413,-0.1559763956416624,-0.1454128069890012,-0.14681332885468462,-0.11021041310739353,0.036572834206668306,-0.15444606886886073,-0.05874802856697624,-1.5956452019152958,-0.32534786433284174,-1.320814044418108,-0.30688933646474365,-0.007294445659932577,-0.05897218212126919,-0.046327556429350075,0.018122789992865995,0.1280072882855165,0.012798093526503001,-0.27099272422240644,-0.3672263389135483,-0.6775607471791371,-0.5053947781925161,-0.34547811059868777,-0.9188691934237807,0.3828556439287785,0.05110442619685046,1.040554046647017,0.6567385549438166,-1.2031056534403402,-0.30092250243265073,-0.5188891870043013,1.2687394118324504,-2.2512821629259436,-0.0723755422435698,1.3349935314848065,0.28060997159254875,-1.4200906734525474,-0.27481101217984893,-0.0228149372138425,1.0000299832860529,0.9206006165659454,0.11166926615612766,0.18781883457767495,0.15581609888397938,0.11661253605145354,0.08960589285027128,0.06674249236369738,0.21604320078734812,-0.13986569520886266,-0.20839707907487892,-0.020298714908642913,0.11722232318471285,0.15324092241482937,-0.04156837147081615,0.14814393456495228,0.16573515969578873,0.02382907286931283,0.321073157222884,0.39836999930005734,0.13338163844871712,-0.011591361051026214,-0.21967758278475422,-0.33786078941641007,0.7540225477345843,0.26303751612245335,0.4886589040788101,-0.04970215479692555,0.03660226922061229,-0.14550503629718128,-0.10023479382348907,-0.5694767731250282,1.2354322900151942,-0.49237008761074236,-1.0353211753931104,0.3315706971353649,0.24455806835021718,0.6355673813259708,-0.5796044249949428,0.8151785896899039,0.09558582482087413,0.02182548922226134,-1.5033625289707915,0.25178463713087085,-0.04111512031992712,0.02591608650876774,-0.045418428753465724,0.15837437798781034,0.446223493336335,0.015053894984090273,0.03013435272866711,0.1276730476770799,1.1277564555591368,1.3277231496780342,1.4340400148091854,0.7920795907040119,0.012734481212483606,-0.9370231430891605,0.13783209569845897,0.6711911376322602,3.105079478122365,0.3768141744996877,1.1633488817934394,0.1337605948240338,0.17404978213949973,0.05833613760420617,-0.9470266106143713,3.2497535528652857,0.24856732890009786,1.1116440390620141,0.5000668305259918,-0.5370094217327281,0.4573356417394748,0.053267202291188205,1.1645649243898317,-0.524145639252196,-0.47320194215077654,-0.027408517931611087,0.8221292302624057,-0.6066010109479437,0.018168431661163817,2.021434851841565,-0.3274703626094352,-0.5753408084295524,-0.05990908420177395,-0.20452673196260243,-0.4153927526639134,0.06975969737942143,-0.19140485284794162,-0.1999513203750152,-0.10403262031940311,0.026064789053267003,-0.15035235196477173,-0.006457237793472721,-0.6523803584582557,-0.110786647443567,-0.2878041922887787,-0.13544103113977163,0.020400052652512657,-0.17345693033291662,-0.8180127496554789,-0.22665322038750074,0.20956590147902715,0.05655064650668487,0.050818828384174605,0.3892355709420752,0.14805884034872532,-0.011102370166431274,-0.8529229188069499,-1.4237714487209252,-0.3975947597643098,-0.32886855313854996,-0.222899563332044,-1.5005246602434636,0.11862355645112455,0.2863773801209279,1.1798306598711028,-0.10941013453182256,-0.07040662064475495,-1.329126520383659,0.6038353133797729,0.9801698759389735,0.23806281425771103,1.2122821382867006,-0.2763259472313897,-0.4153692955678315,-0.22621468368777625,0.8840981156820995,-0.6592816860877025,-0.33953538652873977,-0.30478531405700987,0.23339611120725137,-0.13563899258232828,0.10798561388384967,-0.37675944658509675,-0.13307419162332687,-0.13634408520208105,0.0016444244348805882,0.16864027870319528,0.3803216486341661,-0.14807100100386025,-1.0999937395765405,-0.19387648392954235,-0.17771729548503817,0.6179119950217211,-1.1857683705863402,-0.18786770058423166,-1.0907109320247486,-0.2672154226689591,0.007315763712396211,-0.34274021392457565,0.30383708987919733,-0.04493824673839722,-0.23383406453219724,-0.3370469150296546,-0.9308429198580745,0.2703917159498966,-0.2041601329640427,-0.16013040647925683,0.6352668878174,-0.8282602874730706,-0.5782329493596808,0.40493907608272184,0.016116498947729534,-0.5131265505368109,-1.0134492863985156,-0.010340290933603679,1.806115735503174,-1.0550605593905529,-0.046324728462037744,-0.9754105988774326,1.4985333101029081,-0.3318749705804269,-1.5786824931027104,0.300052457709815,-0.22664691365429795,1.1621994289677269,0.11163263184925926,0.06040666761311681,0.12061951642841567,-0.1920386399936998,1.2508970803766977,0.14385909672821123,2.2130663967444377,0.35361451059285837,-0.018164031212395054,0.20175102048195415,-0.3018623223368917,0.19918701039573347,-0.18105551686523996,-0.36861585506010164,-0.025894630310828767,0.31875095540634507,0.023447158607021477,-0.46040217684043666,-0.1580028069433787,0.305447712016728,0.24506376256739537,-0.15344291037116095,-0.7852512814707084,-0.1782170110275534,-0.7639873029707488,-0.6404786491601727,-1.0467432418976892,-0.44572332514070634,-0.5684130342701572,1.19078275177663,-0.5639167231053203,0.8815757374260665,0.9804904396420091,-1.0662228455638065,-0.46425991207910833,1.004176739099688,-0.3353570742495215,0.8079946543279176,1.269221137408901,-1.2909538329362795,-0.36773308787755044,0.14586722780451886,-0.0028200907383527794,-0.11770666958456703,-0.19904290735612745,-0.15796198389469737,-0.5097389409836924,0.34174913913944405,0.07281999216493519,-0.5220605459896668,0.24312333317794488,-0.3114873453859249,-0.548494686252717,0.06456532786267945,0.01872332109713739,-0.16320949262631326,0.2679686150449197,0.5469071209941786,-1.2105293052114197,-2.500659586009488,-0.5315072889878827,-0.004354908762731342,0.4563989337168166,0.3498390460004866,0.2081411822175909,-0.31239948898684594,-1.2832685095956906,0.6672501557571012,0.15864938891521319,0.2464655730448624,0.9107674123102895,0.44566415892535965,-4.933588628220892,-4.0683225408147115,0.4435746110030072,-0.010815299576249722,0.07025265305575111,-0.3432998762062368,-0.1904406866390211,0.1528595707025108,0.31800311168032425,-0.0037103229631345364,0.008976579367046055,0.17275459076543453,0.11574875208200276,0.03869162163883121,-0.06747512570744182,0.20738071239005032,0.045228310267442076,-0.050597842823577203,-0.09556726722907893,0.41439690685336916,0.22010958805064026,-0.14367883131099088,0.1871497661419456,0.09058977082792825,-0.20276087862404799,0.08567190577174195,0.28413145368550774,0.6864460177879576,0.22649075591312726,0.763782172103416,0.7159695163046217,-0.11160970169284677,0.020128526027866633,-0.5371492421700665,-0.46921434884029645,0.018557970043286763,0.026886629432843985,-0.4406270791469127,-0.297698597460014,-0.12400540735984149,-0.15406359934643626,0.10214284060628849,-0.2496528036535327,1.603169204160168,2.178166652301358,-0.18389905586115646,0.4769884735438026,-1.5479569033697145,0.3383087323590795,-0.24826004143150568,-0.6593509167041348,0.1081893010077943,0.9181583243092123,-0.4077676540748433,0.07424250672570423,0.22885522255049015,0.01781312982320779,0.018027311412114555,0.27184739401245395,0.3008650792609972,0.9755197027449987,0.34417053263379954,0.2802480928682748,0.13834104056092372,0.8302485297835908,1.0383248512502004,0.2575164310584988,-0.04314148635091636,0.40951848535708274,-0.28045988605811567,-0.1733289425276662,0.21706733040126663,0.2909517113773069,-0.0676908187898716,2.7960857098144736,0.2426158150775441,1.3169222635771036,-0.20290811077152568,-0.2291040387800032,0.8725767083191033,-0.23692376979518173,-1.260293038139336,0.23285414035721994,-1.6059737014929452,0.9426578200903656,-0.02508642526105096,-0.2216603611322875,0.9752402352461085,-0.5165110784057867,-1.1184005418399088,-0.18341916004928094,-1.1961272204081204,0.2809098827724034,0.4742555510453972,0.3759158467422662,-1.0517480517817746,-1.1935013944330914,-0.11328868346598954,-0.146831334082033,0.010895150195409087,-0.08740176015782078,0.2521005975826098,0.056514637578856615,0.0788444651561169,-0.13366588983154065,-0.14148629034862573,0.252636856121112,-0.024718817891672278,0.1893807521696126,-0.06298151341751315,0.16538111807746525,0.2802353029116931,-0.054724276484768415,0.1564492270330962,-0.31160176709987514,-0.4826605433438655,0.25981018437173803,-0.19033378882155547,-0.1860419154250583,0.048188759420257216,0.30519428649582253,0.048732246513669586,-0.3879296956663752,0.08843112129871518,0.18559450508340183,-0.23107200648316917,0.3627430152663348,-0.8912352405880888,-0.07859886653357634,0.5807600738068464,0.767012391614172,0.9023007866813026,0.40944683752159766,0.12205096451998425,-0.30363545857994506,-0.336230412082438,0.7841093640257117,-0.49009037638399167,-0.592876033628642,0.15076762538164626,-0.06421786865878992,0.1419954953092132,0.42669293933147795,0.21946591685955577,1.4663737752609376,0.28711230039976265,0.0957361286865065,0.10266067908293268,0.2321714633343524,1.1372361277593308,-0.040595007810420164,0.2310922955550991,-0.0008108688130064102,0.1820666351095255,-0.3502249946202836,0.09771354028491512,3.991284329786878,-0.4402346493958646,-1.6608140454791402,0.13295956700807707,0.4323542740725176,0.2514313669377603,1.2256741695939466,1.8000505315556181,0.41369585161270483,0.37519875378807693,0.44140602078395075,-0.30448602076288395,-0.8078639735230737,0.15954767037872855,-0.00600961004105936,0.835436988715416,-0.29156603053097746,0.2341258650739801,0.3702613492654734,-0.6194451028705918,0.04520273188117653,-0.07566121110087311,-0.29785921001977755,-0.788781495488664,2.0788026118904925,-0.26885665060285746,1.1967887870581502,0.01804877001865747,0.03701316037568573,-0.1163572518710255,-0.034249104413388874,0.058182324591838704,0.05492452843394129,0.030248597600157686,0.14118915786505581,0.04450153455679419,0.11357863597590492,-0.18749187655374638,0.23403650628875355,0.229564651940914,-0.06492629015082423,-0.05716280131719492,1.301376750553473,-0.014632265809798154,0.26080566558727347,-0.09056950192471595,-0.006217528817084644,-0.8062660125760233,-0.43498700635540394,0.931828817287819,1.587265495604482,0.684743035198334,0.1883910174830639,-0.13181668952853018,-0.06938304578328426,-0.10620288851199396,-0.4444390407170693,1.4190707397511322,2.087774078197619,-0.09633498121846755,0.6215564115528734,0.0660838397307851,-0.5365835133309542,1.1625124072198478,-0.9050511415544447,0.4814653147830327,-1.6580615066756397,0.27544235832708747,-0.5693189853890079,0.276206428244115,-0.26596630516173747,-0.07699797031909866,-0.11226499787164891,-0.021392232238052464,-0.09331492033359841,-0.3483270839899941,-0.6694616861714654,-0.7981872439027794,-0.09709263441863362,-0.3747007292208344,-1.3920306220814325,-0.6373534284095312,0.06655892430719645,0.20121775135977477,0.2905100955395648,-0.6212275749028647,-0.6532155777561576,-0.6569806934513672,-0.2580373119298334,-1.636769720473016,0.05708861086530752,0.4586664292906126,-0.4381528660616565,-0.4711229826172503,-0.04765733761797454,1.369673101512522,-0.008066164439403372,-0.7722178488343951,0.11400014054028532,-0.6595955237237747,0.7138219791052697,0.8754977777388475,-0.22953434007870238,1.8149854397346479,-1.7645744485844883,-0.8391866271339253,0.9293993277287632,-0.43380748895508325,1.1316515998136105,-1.0508535401642742,0.46159778572806187,1.0207857980538955,-0.2780980405324168,0.30480693065178577,-0.06644117877052869,-0.19876289036605937,-0.14685401980627716,-0.16337921420937337,0.05308216239939436,-0.5393543047268886,-0.206482331880675,-0.1417708616129033,0.4201579495535643,-0.5922791313758891,-0.8025045151627401,-0.2830645059588885,-0.0021818413091142623,0.10886041723629508,-0.12804391509332388,-2.989951570188721,-0.031989321066108876,0.25710529299278195,-0.08222401401192002,-0.34872229275327665,-0.05792472390816003,0.14382915659078768,-0.7102850411740794,-1.7011232524553968,-1.9405405312816646,0.08509427837575959,0.27633148447739864,0.05899444818952543,0.9343913158807565,0.20292536679825454,0.45291159740419334,0.9767602052981837,-0.7813982418440802,-0.31388534272184204,-0.3234605919919029,-0.0037687978897636377,-2.187888169007505,1.0067039354911917,0.7060011235157215,0.6179998431595207,-1.316320739074866,0.8726439868869652,-0.026329011758559357,-0.1925540103957008,-0.34883235625902465,-0.16845973984729995,-0.48383514784689885,-0.2588976789104231,-0.02172016913371068,-1.0633861229315338,-0.6884855966403316,-0.21220653469416814,0.017811419768452626,-0.0965714987177991,-0.46039694935530184,-0.1695667710096744,0.36819171068041723,-0.8237554217083984,0.21960288634784486,-1.1448528005506948,0.5950612839977812,0.06706842701660641,-0.21194391553178438,-0.694496341291712,-0.14855308513908624,-0.288618264970222,-0.4201130006685053,-0.5766453527485971,-0.9443967663309619,-0.04854602299182978,0.277857916744553,1.0375927669432792,0.11850834710713357,1.272526688831419,0.2745255944606588,1.2197456277229612,0.5211221341827528,-0.2167336448754844,0.16809621946378267,-0.4624528451219422,1.4694070067052272,-0.9449969445455548,-1.1177792829048983,0.8703221839875602,0.44444566963760085,0.5112814593700621,0.15030214419491858,0.12279244093889245,0.25972810338207647,2.764180672244856,1.3644694794910892,-0.6573211440222194,0.07330948799561861,-0.13932273655575328,-0.14986190345744527,0.2816080312869296,0.9642370219400991,-0.06156754088844966,-0.13886488364366825,-0.33688834945976515,0.18428380218275525,0.14749378560713672,0.015275065349757092,0.2485407938027502,0.07049882018975229,0.3628229172466784,-0.5581107943787642,0.5629053586484375,0.001330776760368847,0.2575169256327828,0.4461179859793005,-0.46671733653112646,-0.13727359411207674,0.5116625900290602,-0.23508667280810755,-0.47248840502877143,-0.23028046869143384,-0.3561842024709864,-0.03674425296113293,0.843064183254436,-0.0030807551305888944,0.4061917736256583,-0.3867684775691636,-1.3380116574474363,1.6422541715027839,0.26559916384992655,0.8129271966130435,-2.2689934832234497,0.026826795022894877,-0.3547077406143127,-1.3360477920072233,-0.24119592443808494,0.15160076140664838,-1.021940057025054,-0.3367519988957017,-0.13662363911262307,-0.4460340029666646,-1.188220120232302,0.29026570843220945,0.43805460741406366,-0.10245511036865218,-0.3837466625326678,0.21544727468164518,-0.7775616671128169,0.6599016319656164,-0.032106164244311244,-0.308681290723935,0.08183022132989229,0.5827814935196812,-0.04277981348626925,0.6429808892294433,0.6083000927017522,-0.5227499587933309,0.15116384387674595,0.4684937755427426,0.0856877079479545,-0.14316513140408793,0.5325503596093514,-1.17781529634862,1.658561394323611,-1.1532643897261214,-0.05114999869344715,-0.6141438872326386,1.1095959214660984,0.4146833298866738,0.44558152623758124,-0.633918368149977,0.883678768000833,-0.6106370405454579,-0.695124464661356,0.914050923328027,0.21481293372439106,-0.3040474326114321,-0.3150423968148599,0.06924688409850986,-0.5183951840622263,-0.2337129482388197,-0.21990436140828457,-0.3167401677846004,-0.05896475237381467,-2.3775588770843052,-0.7944991594185236,-0.16357553562044405,0.23382798673562213,-0.07452769680324113,-0.15781387092038435,0.5283855491811239,-0.21180511063406388,-1.3446155785391,0.5314482915862878,-0.2093917478957339,0.15578557098423657,-0.1652544232303705,-0.4821188837845088,0.4391468823614956,-2.705885153318553,-0.019055987833830616,-0.12094932406126542,-0.08622618902022579,-1.4109818936993883,-0.8492496408759166,-0.5709253342661601,-2.8711723967593814,-0.6153615528432398,0.07928787600211548,-0.02347239749399406,-0.32641259011732526,0.8341640990741399,2.041780350967091,0.6737642608523282,0.632496273642139,-0.24831913749334142,-0.07112320350555593,-0.1349965873734629,0.11199394553925385
biasActivation=0,1,1
[BASIC:ACTIVATION]
"ActivationTANH"
"ActivationTANH"
"ActivationLinear"
