encog,BasicNetwork,java,3.0.1,1,1320882648889
[BASIC]
[BASIC:PARAMS]
[BASIC:NETWORK]
beginTraining=0
connectionLimit=0
contextTargetOffset=0,0,0
contextTargetSize=0,0,0
endTraining=2
hasContext=f
inputCount=42
layerCounts=1,64,43
layerFeedCounts=1,63,42
layerContextCount=0,0,0
layerIndex=0,1,65
output=0,0,0,0,0,0,0,0,0,0,0,0,0,0,0,0,0,0,0,0,0,0,0,0,0,0,0,0,0,0,0,0,0,0,0,0,0,0,0,0,0,0,0,0,0,0,0,0,0,0,0,0,0,0,0,0,0,0,0,0,0,0,0,0,1,0,0,0,0,0,0,0,0,0,0,0,0,0,0,0,0,0,0,0,0,0,0,0,0,0,0,0,0,0,0,0,0,0,0,0,0,0,0,0,0,0,0,1
outputCount=1
weightIndex=0,64,2773
weights=0.9572053943700024,1.3659363831567775,0.9933696499362176,-1.3775254075177554,-0.9453452282303166,0.8167330893190367,1.0817981506104473,-1.1350259208516726,-1.1154876065203907,-1.0391223692031257,0.9227073310058136,-0.3840775578159996,-0.44260661026823245,-2.2934341741754922,-1.345989699153528,1.5124521979496799,1.0965478705955494,-1.0138003215373945,0.9606320192515119,-1.0694550992576162,-1.1444214563478503,-1.2594009587727721,1.3171148391394292,1.2382502304019183,1.2397247732417414,-1.1585255107659305,0.8596001269072802,-0.9428635608038072,-1.1830407271417214,-1.380050282790164,-0.8092934187969071,-0.5342804563433141,-0.5051497276087836,1.1384303729831067,-0.9626874663670195,-1.6171269205624563,-1.2703191279951662,0.8888674037347161,-0.5060368500855782,1.395737561536253,-1.370446999561403,-1.5851612388449214,-1.2398223426541501,-1.3769892029124073,-1.4009382538281174,-0.7925774728669399,0.8899068944537223,1.0389993366995673,0.7276619854095335,1.2005587872322439,0.6987203519323087,0.4605436852982693,1.0099977808371507,1.8907709983265149,0.6386817777634569,1.1692609867750057,-1.792113986712965,-0.6983568869845603,0.8957931307057534,-0.8361729408375509,0.8332262165921995,-1.0189369183028871,-1.0675592948894637,-0.06157622866960183,0.2466092982081692,-0.05568009917429679,-0.08563000838949499,0.21087128078692025,0.007151141812232306,0.2399230497491375,0.09576599626318386,-0.1633453286375951,0.23266775431680364,0.5776088736248979,0.24477151580407258,-0.5002432048273885,0.35880925113539364,-0.469720226748049,-0.5494875463527304,0.6861398879687308,0.3387193476896673,0.2760570888315623,0.9785179805016543,0.7481354358568589,-0.3983418746375121,-0.8942202194705706,0.2616613285991013,0.18226377384649467,0.6578299940283153,0.1978107568755897,0.4807832288775077,-1.3782615901122204,-0.46307520017030623,-0.16086222046677984,-0.5103394892859667,4.053412898421096,3.985973513359493,-0.3520383607587959,-0.5665953126185,-0.14617360863860487,0.1808153420828661,0.02570391207302409,0.3311067987429562,0.44864621333927684,0.3872734135501976,-0.007211886238634673,0.085075429979669,-0.7732713670003276,0.20772793016349203,0.19379960411925287,0.1641435957048972,-0.01729486122352537,0.4853892153560916,-0.358191954978139,0.035017102605149265,-0.09901026442927124,0.07145449676668482,-0.2236734120706021,0.30450904667408735,-0.27414058643977457,-0.8074648957615795,0.2418626507646903,-1.2977587599705662,-0.05219327665392115,-2.389260856377828,-1.0364182400117976,0.010858570466915197,-0.6302977450123347,-1.2281604839564684,-0.04739392795331648,-2.1749335472426825,0.025773868133702013,-1.425591524948141,-0.4677695987118233,0.4751581206374357,-0.16531226482363068,0.5758455732157314,0.24384684519848818,0.5279243159911631,-0.7559397836377336,0.3133100413729657,-1.5354098350135212,-0.11459647212752277,0.26350698464711186,-0.8803932517190625,-0.6407693343076056,1.162008766785792,-0.20550336340165132,-0.13987300753319476,-0.017324250163818684,0.43705829352269865,0.1265271364027232,0.24088389971897536,0.0768778010126771,0.09113526600070876,-0.06281106503598888,0.2698748557476243,-0.14067662720148624,0.277806105804439,0.2615057255564797,0.2155545739938554,-0.13172408193527066,-0.1135402352491027,0.655477483010715,-0.43209177000766075,3.978278605228009,1.627601405908124,-0.4838883994633802,-0.31813074488434684,-0.019171981405055057,0.9016057189400981,0.7039573486831217,0.2491498551477742,5.438507650095305,0.9475036325327514,0.004977322578556308,0.2261523351624792,0.11876642119315113,-0.28833325193355575,0.3307944111989107,0.5549137766683342,-1.4852872574636276,-0.8250325315155216,-0.6284636206731975,0.4972652607684916,-0.11831226475089475,-0.11095478547398197,-0.11792601170531536,0.47102232938751043,-0.0931376028725959,-0.46943776049390307,0.36637092112167857,0.0706578518787018,0.11573556356476378,0.19063080279271022,-0.16172954100843984,0.27345852776477575,0.08936287197913441,0.05035490844767146,0.04160605033113442,-0.3118821625323563,0.06245362675513,-0.1407894857663369,0.41741736336589047,0.009937052391422651,-0.12112203427641305,0.11250898234951541,-0.17575280722416028,0.2602107173500649,0.2643890263521564,-0.04756069313560898,0.5294360172299202,-0.2665819432708105,-0.08598800236776391,0.15348385026085143,0.45984736334472054,0.11205013113410185,-0.3057739739631453,0.07786242885100127,0.39312337125429747,0.19734313184477645,0.13897945035984163,0.3336299190785714,-0.26146944837749053,0.30462088328734904,0.3418988805885434,0.2526012283406028,-0.5394378825652096,-1.0142809346415205,1.2427218916184717,-0.6369409508913557,0.28225273628454367,-0.25707948786475804,0.48781661977868124,0.6570624294241199,-0.039924262059650495,-0.19249486308000116,-0.7485012579025492,-0.631621455121975,-0.17868698546245226,-0.24283733953047723,-0.5207035914356833,0.49684812019456814,-0.17827973029597535,-0.34241444070733734,-1.1830199123174592,-0.3241552617043804,0.05411165165468862,0.29518294039513027,0.10956602342602208,-0.07818769084040085,1.8923256684015426,-3.2044001379438005,-0.1039455250910502,-3.504683778607489,1.0666146668120051,0.38455413565773733,-0.14865352553310426,-0.0891529251355651,-0.7574649739013453,-1.419247556445713,-1.8938076054127218,0.4312465865656679,0.38902336648907,-1.010679803903193,-0.5364285571084484,-0.7666963213123325,0.7593661980011378,-2.964361984091458,1.0909921698196579,-0.5191904634418044,0.009956694327722837,-0.6289710123206705,-0.5335132180419578,-0.9293936742050953,0.26203424431132044,-0.39949120065272,0.20909002004676958,0.2827474375479644,0.1542179214672297,-0.01777424239592253,-0.04139047124458386,-0.19423892098917492,-0.20217072804693234,-0.19668897790349874,0.07866580427305842,-0.26293017154747805,0.11877001704626244,0.30516034882941023,-0.011567274612695758,-0.09384727748302486,0.22785905206746684,0.1443372989984863,0.1681077673348741,-0.08174511180903453,0.3999844088999133,0.2692770585875918,0.11725891691531279,0.3478192072578114,0.6392913293706631,-0.19517474437241314,-0.3775984839258254,0.1654691259565061,0.11067498198183483,-0.8246111938084977,-0.6115215078019695,0.0904441926699692,0.9197660007090901,-0.08364740399357959,-0.6644767560490048,-2.8951645555143584,0.2001104337439443,-0.24336627911142214,0.3620260339531909,-1.2816613167824817,0.04679734366251295,-1.0428107403583855,0.3068211201253369,0.6434506328937105,0.7573073185227926,-3.1773537985113607,-0.15404045904951655,0.1084821267221132,-0.1594734317332637,-2.3961436267016514,-0.002547234162443786,-0.18342449383054152,-0.25854782564409406,-0.26315595335361375,-0.14535021895513092,0.16164256300517962,-0.08836889965135165,0.13522291285413984,0.042979286910893366,0.30965616483263286,-0.46468336201025784,-0.8114589082057649,0.14884677725903384,-0.40143001207247847,0.12879013727051444,-0.5697793087503115,0.08357317252869641,0.18029234841397002,0.5484212463072903,-1.2276064871103953,1.0067165641063471,-0.0741557812581013,0.07192533748641092,0.007048577939087217,0.20927634935693978,0.5785853884587632,0.39584571946644553,-0.1381515475057425,-1.962577643785449,0.5590688205579393,-0.1429131347338384,-1.0015547770608964,-0.726702822074901,0.6061695968269263,-0.5506571460188785,0.5474028401208163,-0.7770372565344953,0.3909526912005139,-0.7074299659903982,0.04770628007057054,0.014405967029922861,0.27834727218871,0.9818412305201355,0.23260811770295353,0.5189682957039858,0.14034326867474006,-0.0277558578412283,0.10118775161317492,0.25156077615268735,0.24509192044346007,-0.30447238354092443,-0.03027863454710363,0.004736384222366831,0.050272638179885844,-0.42160409242062424,1.2568824808344146,-1.2214566811725982,-0.06110982712329485,0.17600531839248038,-0.0791024674663569,-0.37823027365303985,-0.6526258791630308,-0.7664399800378994,0.42694561919420715,1.884174938653379,-0.557598308994571,-0.3569971321573916,-0.5490730163398241,-0.2062720948207785,-0.5446700600065136,1.2216754869448656,-0.3119754306676612,-0.5994119271853973,-0.06841862829801051,0.7541495981131124,-0.563643610574505,-0.10016195335821189,-0.516978663211024,-0.10791597257515126,0.5853562176101473,-0.45487417361474,0.01838044966277895,-0.2977405047279923,0.1697422239317628,0.00454413108335368,0.3041382522191655,0.13728621284606674,0.2956970831779246,0.266224730793893,-0.09734684134769696,-0.2605139274034549,0.08581162526982883,0.10258574562267996,0.054610332843557464,-0.21703782962347085,2.7387255805899984,0.14544413968598383,0.16051480751617433,-0.17249438619148183,0.08618298804244282,0.23040988244300847,0.16991680950743696,0.6477502464436045,-0.015513861231957964,-0.3749311985892586,0.0979078737104693,-0.44790920546118485,-0.01391922061922192,0.25558427455147054,0.22567937422883294,-0.7718213073780107,0.3516706017206052,-0.5142285220790863,-0.3765136011358223,1.27767756433218,1.1266298497777945,-2.2807618979901383,0.3852416782797237,-0.23652383626612825,-0.24702634285945874,-0.22555020360905023,-0.45124555681211503,-0.40039732431451414,0.1690951979335977,0.04675844444474419,-0.13490380192934381,-1.877685891560942,-0.4009993678935471,-0.6600724458335337,-1.0720128729832197,-0.010903685222540082,0.1025475546478006,-0.883795264734986,-0.4754737296640693,-1.400871890483183,-0.8403763661040522,0.06461898571165332,-1.4671391520127446,-0.8017575402132908,0.1405516104990706,1.7194717981620313,-2.6094771529076377,-0.8009104345320112,-0.5844503824994118,-0.29080052210364293,-0.025389525746563127,1.6950946113037653,0.08527004307607673,-1.543147575678981,-0.45329534333188776,-0.36505518258972836,-1.4838990762730944,-0.984776530590048,0.0022208265237447814,0.6815537525894745,-3.4308908992205396,0.35523339891778577,0.42026059829566004,0.8187641112844828,-0.09777338796913515,0.9166367849536565,0.5154054573570721,-2.2388027676288242,0.6779633588630729,1.2939308628199422,0.6614679523553156,0.18726136338372146,0.7051983052557839,0.24127215686407244,-0.5810147804610137,-0.12405883792521735,-0.10319751194283092,-0.1371905957066511,-0.04067665027915368,-0.08878812816178651,-0.17818354689892754,0.0966991147986463,0.1525468036103476,0.1518325020480195,0.5535558194661688,0.0450451127763869,-0.02431827057777162,0.39075104616839884,-0.29841600056004713,-0.18949949106821912,0.06509929906500274,0.33419963353495824,-0.15748526357265638,0.03809181214166929,0.48894661553683927,0.13719510616208302,0.348476599546211,0.903069434734663,-0.7617844454010462,1.062934873976673,-0.07664102386997254,0.4990584698200489,-0.41651682193385287,0.22497440973544697,-0.7864014948838897,0.253911720413364,-0.9389468187146429,0.3194535371052809,0.7998216232816638,-0.3667167678433367,-1.0051404339860879,1.0492822146128102,2.35698211149518,3.419961138633088,-3.548703448504799,2.2562028532902447,0.11605894428440229,-0.4484547341682445,0.05324378229402451,-0.013780926858024033,-1.5668433412807004,0.5073633981420116,0.17903515786188662,0.023068913293573017,-3.3722500318587207,1.2407194432051702,0.42881613632649856,-1.5461482097456827,-2.2625072333653056,0.17989092801865084,0.8160220000962127,0.4329716518130708,-1.1982764106019494,2.0069482028153005,-5.231325878567086,-0.8604188146785463,1.5761423354792297,0.5970442431789689,0.9210110720731687,0.5503101875363203,-1.3402841320348535,-2.3796231981878453,-3.555862557553297,0.1238546526400242,0.15367782256603923,0.9111076943262933,0.8025343716992178,1.1231223929330416,-2.9279067259673193,-0.25670230867174715,0.3718254533685626,-1.0681593190240546,-0.369377071502705,-1.0209092394694566,0.841339019056386,-1.1092424205825246,-0.8681358664801397,-0.07307504144316283,-0.473887578866101,0.9471975397831573,-1.4951644421257513,-0.08174584772774526,-0.6106669693033979,-0.6712330357937679,-0.8921436830548783,-1.0457032196570797,-0.4151953002339112,0.13013606975255268,-2.5484515611764484,-0.4560944855589349,0.18703445352543047,-1.1312310095180178,0.19943745201066018,0.8330779563962071,0.44377231171593634,0.5937060732370286,1.353805905590494,-5.653388657311328,-1.863265807744065,-0.6828670296267555,0.614135045537816,-0.7976860408638333,-0.4342102338121459,1.4840292122494245,-1.139801496478521,-0.5802597824642414,-1.508613135272875,0.11234001173919174,0.375133821315447,-0.34767020439632496,0.799080856968557,0.7254210351382382,1.7060268658260889,-1.5412189059207615,0.11716632695940096,-0.6132937744298794,-0.8262847131995856,-2.0027792811680327,-1.6464662690487029,2.410346378790526,0.8438355452333502,-3.348349103265031,-0.01777873362308492,0.35049725268111165,-0.018090198957751557,-0.06799469645781457,0.04348267499497307,-0.0400821125326386,0.22086768201844514,0.06779688353883624,0.2226314132989478,-0.14901200913164744,-0.1586397831281603,0.14369021865329268,-0.08953318656245063,-0.38260378044421395,-0.11568796665079845,0.1074471792430096,0.2167283312280251,0.31891656569473525,0.11591974936457362,0.14249620790400333,-0.05699981173680038,-0.10614249489116898,0.23041109819295358,-0.16263253170107153,0.22862048930635157,0.13106683421802076,0.11885108727507887,0.09633869197017976,0.06539294212180756,-0.9657489928360156,3.8778812789240207,-1.7749228802728723,-1.5848064603280385,-0.42711813167397045,0.15030805241655545,0.012527824830237174,-0.008562896850083915,-0.10719552624890943,0.13763528403389863,-0.1904235580566246,-0.16676255186415978,-0.2377050811973499,-0.1757021032526405,-0.2389107970369667,0.1823986183539849,-0.06352050437229781,0.2178803759074839,0.18859304648083275,-0.3787375806782618,-0.2853337432206659,0.253018501431033,0.25952792638043864,1.089308161748703,0.12558907714623047,0.3009225996434898,0.6542954008504812,-0.4252730541620036,0.1876599536658275,-0.004108311723978092,-0.13808983125657212,1.0581532883186338,0.4286886495201922,0.9243193971930346,0.31593607895868103,0.09865963994201137,-0.20411308334705527,-0.4302780419625603,0.572944087272122,0.5211913720130508,-0.18203707967891852,0.10421418782879537,-0.1987923642715985,-0.04598980141308065,0.038724063942766916,0.6619128776095513,-0.23079660381500844,-0.9925309894049104,0.4104428834978234,0.13849637971659967,0.8033667811094286,0.762266001320486,-1.4545727149681653,0.4526331913192518,0.47447633943856127,-0.7197914361686443,-0.4533397566054576,-0.14958697669117152,0.16399609690715433,0.10535511686453,-0.07712949203408039,0.09577476596764228,0.03384345386376566,0.12824824462543333,-0.055558249517918684,0.12456971673923703,-0.11545262099409323,-0.002913230429322301,0.21044914763391553,0.2184876398641924,0.073744120307472,-0.07489500650133277,-0.029474694110908795,0.20454325283593672,0.0685326089383581,-0.2056418031607395,-0.11632063849769077,-0.007996926857540786,-0.23222099262580526,-0.20145520037607806,-0.27942822276115936,-0.24367463612105225,0.05609044730257301,-0.4053934355838553,0.013119484977597485,0.5299801993843286,0.12832129905730588,0.22238754120877022,-0.030443319472271073,-0.0160572598466297,-0.4228520648884716,0.05353456332981161,-0.010900079503555355,-0.3647975896795835,0.5906625099596008,0.377986164095785,2.0359569951432923,-1.2174219696452884,1.8527607353489541,-0.2187924773900895,0.13201143614455255,-0.22973780055764,0.10423985368823352,-0.07119926773276092,0.14022391597533154,-0.3261288878304691,-0.20140895880638474,-0.15321200337682794,0.031219151031677706,0.014131594623901159,-0.25759000033660934,-0.28212604882075204,0.23331646838543668,0.4403230977826507,0.6605187128018964,-0.022715420014629,-0.04782927619104854,0.13954091118750817,-0.2846391287480938,-0.2672563901831759,0.08750318821255736,0.27374275051059,0.38892530741377546,-0.28179308622235,-0.4400657184024818,-0.3670848389203884,0.09970859069012879,0.07706366556077249,-1.3011578205113243,-0.21065550077625467,-0.21797098878029547,-0.11646054655331393,-0.20741153483067618,-0.43170645619033043,-0.9322882518419784,-0.2465260962588261,0.12963416128349625,0.18191107619938882,-0.04723172671692986,-0.9932073679307435,-0.5510751165198062,0.19276950480599297,1.5000316940406921,0.22050493364823892,0.09279776932815231,0.13111463587836078,-0.17682430053040224,0.027807637515513444,0.19774772174665242,0.1250046950724507,0.21559766377568262,0.1564150205780433,0.12626108642809622,-0.027918161780677384,0.1804380513197359,-0.20456380230479443,-0.09536040160940251,0.2180402716022819,-0.14658208318448396,-0.19891952266838542,0.33831652461466444,0.08054344310109006,0.02486048749174549,0.04768626346989482,-0.12608014888818844,0.008492862236976382,-0.46681980660563444,0.5357273089299904,0.04471173130080873,0.22244138426843862,-0.4472737697146476,0.24923790465466847,0.14762247611377977,0.246154268489211,-0.7500942657951097,-0.2811887150024878,-0.20657094539111145,1.155932053545522,0.05622866743403145,0.20025145534195518,-0.6122797813601114,-0.8586846345437694,0.40149518592471223,0.3806468229637671,-1.6021408896324385,0.2245835099034653,-0.0891309221031699,-0.03460114372826781,-0.05179325860741123,0.17179844902152897,0.3132374627682408,0.07711746352837248,-0.04868677112782488,-0.10244846237907788,0.8205631291392708,-0.032677438976676965,-0.4153920506981468,-0.2109069481476291,-0.17582915649838476,-0.37469103088747524,-0.40878328821204707,-1.2618273991292173,-0.7443076507442775,-0.8262965864791225,-0.2675020594066075,-1.6786811791935436,-0.44369497438382416,-0.25739699678296224,-0.44836053080406474,0.6096462964635745,-0.17784250079116204,-2.9569547239008807,0.669471524983428,-0.05245853980483823,-0.28160465145961744,-0.06915667277796311,-0.9568585874029479,0.020396850073731616,0.7669247532793751,0.5937382422576878,-0.036328209914294016,-0.042100839476805055,1.573540514404414,1.1066064946595775,-0.9870654736375317,0.7536107497077648,-0.011828707438490361,-0.4069457617454506,0.13641682540278804,-0.0580698617716382,0.347324790212569,-0.018383289951758905,0.2305089641181595,0.574846729101433,-0.03913297674355064,0.16810955718497222,0.20443537017381838,-0.548171959007829,0.6810735323249087,1.2145692293195756,0.2569990355045443,-0.022138985349084307,0.2491031800520256,0.2913690496226377,-0.28843510587031757,-0.03994572417783218,-0.04815881526608158,-0.8596609535604798,-0.15488656412247634,0.14857975047032562,-0.07136319255357666,0.39321721823313716,-0.08772994795551024,0.0716406309618631,0.2060659998893767,0.8505241815867549,0.22364229736460495,0.11267164695294453,0.07447636669667508,0.1470504743848773,-0.06520666398526907,0.877774691704683,-0.30815458396962325,0.007242823858894149,-0.09894099237355702,-1.4669552218139805,0.20593607195675206,0.30624437754351014,0.15320522402323664,-1.5356382239390653,-0.02738672616522544,0.39692389339285833,-0.03786659350529356,0.5160036265341092,0.13289882582739976,-0.050357929141855315,0.15496539960199193,-0.054010932634928004,-0.10652409375758888,0.15653051398196144,0.4428817105876446,0.031484403774348135,-0.038627366457277976,0.19221061806855616,0.036233436314805356,0.11723670468947166,0.13189723361590547,-1.386090306515324,-0.3386810281700759,0.09438822524852519,0.046489763160916124,-0.12251907479731412,0.2935977138402091,0.4136667438397438,-0.19107709202791476,0.43055784235135064,-0.07637535551832254,0.5320364787763086,-0.2736060490680628,-0.0768080381931221,-0.6366462469765969,1.633993916371592,-0.9186381425054291,-0.03629857790323669,-0.33171883120489276,0.3471073056440599,-0.1691442548209284,0.1831055034368375,-0.146268875390729,0.4242322111616239,-0.22110498373563559,-0.22132323627637823,0.3787575593535096,0.04307538088725757,-0.06086109468732617,0.11604850442917246,-0.20746324812301262,-0.3044369927894579,0.6350828483423177,-0.21653575081122567,-0.33936397149684117,-0.4300202552242866,-0.9464995944821796,-0.087833205922648,0.05836637566284803,-0.3441850993433714,-1.1837433141529896,0.23455098527279436,0.4941908851353808,-1.7637527822304317,1.0232459684249091,0.07751907435353808,0.8940106230381852,-0.47644947143101773,-1.15728115164935,-5.227279115825225,-0.711739182516743,0.044969494941534086,-0.15944486087260407,0.414967189692472,-1.3347959147637234,-1.8084127873564273,-5.717686889139584,-0.5908686574289964,-0.14828559710044784,-0.42263243434659653,0.49603207083195927,0.9796642136814168,-0.36055917954741523,-0.862556872564126,0.0656342061594039,-0.21913289910031375,-0.8222190104726504,-0.5641633864593624,-0.039371226171087084,-0.8620864043358839,-0.2960070256523458,-0.703390148464465,-0.06394621988563022,-0.019733882924284456,0.1510386115770866,-0.06544529683178212,-0.10724517646736362,-0.008495631642618455,0.05836983365747608,-0.40557360873206244,-0.27895469080790497,0.045972206237611404,-0.16372721321378123,0.03848945602723835,-0.08161545197445248,0.19093259576545868,-0.3044398566650513,0.1920921716619036,0.558863956702109,-0.24033181589932365,-0.24522067015546856,-0.08083659093717104,-0.14131288089488442,-0.35267759758228606,-0.022470707453805413,0.004043367576046947,0.2447234292886383,-0.25307880878784306,-0.5104559737648003,-0.2727774484978668,0.0647871709925696,0.029917998306941355,0.40448206921536606,0.5583671327297064,-1.209448422404533,-0.26809741818886645,0.525799240047989,0.5713893809187187,-0.3854924050976469,0.027417451176160013,0.3993917708607596,-0.3845685233640794,-0.12576868734060062,-0.06084236086567549,0.2518422138827126,0.04255044585560275,0.08045713485469838,0.029765884297954494,-0.061119289219368045,0.17444668459347978,0.22100209981442337,0.4837908494494466,-0.1379360129310809,0.9343292639723704,0.296880738986621,0.1306696618757463,-0.2528489761504415,-0.05745181283083322,0.06467786658231592,-0.3628538252922946,1.9486922918716272,1.1849823788319649,-0.38238716790762384,0.26824558701355045,-0.2004438058662836,0.3380793507800834,-1.0325186843624978,1.5578072088273838,3.1408245098989402,-0.16719649291532088,-0.03351710812779224,0.3298593321199791,-0.7045763218238446,0.047512983010303836,0.8100566604922619,-0.17706227554889123,-0.5830794822842831,-0.05798722364237756,-0.19695381725000846,-0.7700481680180489,-0.01394456227355901,0.6372686738261509,0.8791447660520425,0.3178347359328692,0.05097811808064103,-0.21564240282442876,0.013435954765302082,0.03512522937394046,0.11733541069365386,0.5728111675048262,0.24822647424208374,0.5683245079033645,0.015301856957641219,-0.18912815980405537,0.7106326754975106,0.0982314138549893,0.780503598250734,0.25031226669510187,0.889547945528518,0.14605129215712861,0.43469593235483683,0.47331352231145063,-0.13910947522312117,-1.399493985802725,-0.3584058584583919,0.41931067387183657,-0.3654955239024027,-0.2572236285120749,0.3724665233504545,2.242323178640358,-0.2460492317588203,0.4064879514338849,0.44400088413533845,0.6977356546487216,-0.23353286043976482,0.03504920517169777,0.03482686102886579,-0.9392932953093668,0.21435217615614277,-0.45747143020431014,-0.16364879713729605,1.2205219438346515,1.4426969312212348,3.4037105531785805,-0.6304039936513899,-0.7252072721266514,-0.3180612016949117,-0.583480778745794,-0.4051840654029665,0.4676669703273307,0.6943985997910778,0.0717639519899324,0.27995441190649967,0.2671568511505644,-0.4009336631113845,0.21218447711940408,0.11070497906478528,-0.38967383876385564,0.12075293162852477,0.31487568081301665,-0.6282365559975576,-0.4654112993017664,-0.7507782726308901,0.1369084266062888,-0.14544075426652778,0.07580510096716742,0.17096555336161293,0.08082541225584486,-0.5608209249934368,-1.2438276123439531,0.3076686198205287,-0.28070290895341,-0.4069187991742309,0.12479619994711312,-5.92293290977452,2.8021467207327566,-4.165590022079977,1.1094904204968061,0.2403844663054002,0.2164692205842554,0.004691438720337151,0.3073273438089657,-0.31492240990694137,0.6341415942954414,-0.4864603609235145,-0.15295142839799006,1.095199921426117,0.34837470846136726,0.41538761287431564,0.3651200593083489,0.4974648920513785,0.936050318392374,0.294288200243054,0.28835222005183125,-0.06648693086286203,-0.46498323168740613,-0.3701184110862656,0.6532998213342933,0.29761971356525496,-1.3714167086447773,0.4101098772837626,-0.37753485469350956,0.16121786755337109,0.2608294144606433,-0.39276670388134405,0.27548724941549185,0.3004961171248919,0.26596965675159323,0.9815143091962604,-0.5514401143201987,0.036922703630785154,0.23070911045346928,6.994911022475752,0.12777629456983405,0.6917402912311307,0.9345002157047191,0.6117165910018322,-1.3537789116516636,0.2301708584801055,4.200669841569954,3.9739081507916323,3.271178948918748,1.1177598522389696,-0.1309695161987992,-0.7364393318607371,-2.163324358482064,0.2802322317125642,1.1130713620177781,-0.17877838022776169,1.4467015067044504,-1.0125973593847675,-2.925806059668916,-1.0315405154766497,-0.23879450304381877,0.02212580551572701,-1.7114455182651231,1.2363768045681731,-0.20180345075733058,-0.16070921492356274,0.02803526261438855,-0.18488570101317092,-0.3086362793454128,0.5688972704957239,-0.03078620323019634,-0.2786455172985066,-1.0359811336980023,0.5761904861357166,0.13931166325393204,-0.07677280051903229,-0.10533560052601121,-0.12410019508372566,0.019575278982197235,-0.051280290028137845,0.8903189799080979,-0.06797588524580038,-0.25345252063525137,-0.6501691908334268,-0.49589732093040095,-0.427879603668102,0.3559688760156616,0.025125053478645604,0.04873046154051148,-0.21450715224917669,0.10331531360629578,-0.6741598596479741,-0.5784656692887546,-0.066185603046629,-1.1519163306204974,0.13961007150410373,-1.177776674550118,-2.027927456258079,-3.841965458613815,2.619949129959606,-0.11920360462869015,-1.2232436274618428,-1.0928862148582497,-2.4975434244343053,-1.0084098690937366,-1.7792501691611797,-0.6718830225702151,-0.025612024896594594,-0.3634405166485815,0.16112867470932843,-0.301637354754318,0.29120872991616337,0.554489037631983,0.221996536719915,0.04631384951603221,1.5181962489174536,0.5668455805145486,-0.14198288184877242,-0.2565447067376791,0.18595354909848377,-0.12826521353511397,-0.3199371007743744,0.4062840861530875,-0.3763588807966463,0.23307091954801662,1.2606337482870122,-1.136321766462003,0.4516223619924489,0.42149423267191594,-0.37273470246081014,0.5895427002440672,0.059075793015071654,-0.3186995972925037,0.00018219351111787045,-0.3834131205134876,0.060967347740858505,0.4141109868817515,0.7830715587853749,-0.6091465952316667,-1.1517900359682636,1.9197443162175807,-0.140819368532288,0.006216345118157946,-1.2802814989544797,-0.028311053038535802,0.5654434240604288,0.29801486531148935,0.2376380708986397,-0.2381338063136415,-1.0934849438569185,-0.2503386919625175,0.17120690066294972,1.1980696718732948,0.048488189171033536,-0.23987360025752225,0.007989112615847987,0.30703246588221444,-0.4502730496954392,0.6163080432084728,-0.23952929322611766,0.16790335797269562,0.755853051535645,0.07015786994989881,-0.030156082104384436,0.12029681096653046,-0.08119894995924985,0.6442406658640517,0.34342462672985824,-0.8054017705434787,-0.07606629003550114,1.060260966725766,0.6864916191263462,0.029626561031730163,0.2270711093659091,-0.02733685654282104,2.1084730006492083,0.37347457958756525,0.477105749251576,-0.2327455027079341,-0.44908849144130714,0.3439732026021554,-0.11174937233197074,0.813909727768933,0.1580099296159499,0.3049758688203469,-0.5408245504098114,-0.12207183145742281,-0.967010186754664,-0.38997796380624594,0.5531715325319594,0.5474111885403835,-0.5956444788454188,-0.0017069199970832685,-0.3425099765495437,-0.13161408901904662,-0.5096939962813296,-1.3494815561084772,-0.20527882693216273,-0.13943033126923235,-0.73518519276356,-0.3144491486112999,-0.07040394561828296,0.3217351474937397,0.3475604039387452,-0.24218153490167352,-0.14465201484858148,-0.44457132491197676,0.22465618828147754,0.00543352119109814,0.6294775425909613,-1.5540678723451045,-0.19832592331240897,0.36338162707231636,-0.5437581708498072,1.679795605655718,0.07929667808993383,1.3278430281753093,-2.8369456355538567,-2.347228921483061,1.917439351671751,-0.6791938123216128,1.0253728451944955,-0.40233754186527787,-1.1439647401777038,-2.1706876846845495,-2.535468927087782,-0.8231811570648048,-0.6788410480020715,0.522608139718447,-0.43099374752557806,0.08172563600934993,0.2409606793054331,1.845847245661744,0.6263382598045981,0.5469184716946008,0.10924073766358668,0.19219448348429768,0.3499332781476602,-0.16230459292315946,-0.6225851888474369,-1.7948738575633174,-1.5134718470927442,0.6045510450662074,-0.1695125768603531,-0.847074614759085,0.42194716722409903,-0.8757230579513641,-0.6554481899720499,-3.2884686005680233,0.0137354169563242,-0.79636263569891,0.11738351142138158,0.45352479817032626,1.0114958612040363,-5.626370188014982,-2.5102561259049447,-1.1529756028092444,0.6171532888195327,-0.5127120227372078,1.261044137557305,0.12598555438684497,-0.9421200199410759,-1.1743050609512238,1.9415107394124087,1.3142049697753577,-0.9246155883550848,1.1707225324730135,1.3334913428710697,-0.33973438495237845,1.087428409556184,-1.3377646186364582,-0.7245672391480672,-0.7712422648202671,-0.0299179501470398,-0.8503972700735699,-0.5504633212884706,-0.24510294427278215,0.3711731568112789,-0.10478537523838385,-0.687750031528141,0.11609319185545486,0.03424011567148428,-0.11576908090111779,-0.17336676363870232,0.09062176950235214,0.2162828177621929,-0.6809946357854499,0.07262086936851837,-0.6191684840406301,-0.29037909053390915,-0.6048849273979794,-0.05211589171574472,0.7023611350625802,-0.5039581713468395,-0.7112381060723338,-5.278837120674537,-2.7433278447378853,0.9052640412551797,0.08079105168587408,0.2005725797244026,-0.6555035666963684,1.4494919195807947,-5.341972107655223,-1.8209400450570008,-3.944776354419354,0.5826048667789206,0.32246291604348737,-0.8105606056392807,-0.6499693750075827,-1.1897941112482888,-1.6761880223960501,-1.0357574803608465,1.8967874008350192,0.2165657736444163,-0.1091039560386852,0.2663484600238071,-0.595664049154688,0.4366988985450014,1.0320339531394234,-0.3381961619450437,-0.9854206089490547,0.10317444540112175,0.17026200352179513,0.07763183470356404,-0.24897228352092932,0.0042819697453997255,-0.9500270393322079,0.17099516069323653,0.058046243554388685,-0.23655545375951129,-0.24619029564079997,0.052426913044838104,0.19891822319472224,-0.06264903006262447,0.015730913525350023,0.2962603316740848,0.24625209328894138,-0.025642293014713293,0.3436162339106626,2.0146148760478186,-0.11280636281951857,-0.09570008548697204,-0.1081754199661389,0.3776885139417488,-0.3478081007179294,-0.09484635336635826,-0.13898438909583571,0.40092856462663595,0.2828468169820643,-0.04666463503235721,0.36259510902581854,0.4320260488935924,0.599525192109192,3.4345329118272656,2.798759032393834,0.8341332803342877,0.23294626435610422,2.6356120790902886,0.3056310207519984,0.16840573922702687,-0.5865382463087055,0.7193997299534571,0.6308563751870934,0.7144087595026595,0.026280906151211363,0.10322394799467731,0.01689712657313356,0.4951982252566878,0.1760265023167197,-0.2236351011942209,-0.0008404972421524257,0.011087150759066265,0.8207062244354703,0.1291495058828844,0.2506967713280128,-0.11803060236316915,0.5524221137597203,0.4736085688301595,0.4956189511252943,0.20344464925253708,-0.0649941500825676,-0.3647899464263995,0.2505179744131628,0.4700278474274992,0.2993807383195045,0.42706082034638787,0.2662066958677525,0.8485887359411772,0.10938241709170426,0.32894185791358865,1.484792568966459,-1.0633702527247835,0.4451244269347838,-0.36642352252583027,-0.34402094541581385,0.16271132124976734,0.3710408156141921,-1.2221890835916007,1.0311368944795087,-0.5996573662368438,1.4244697226962293,0.5888993500308656,0.7593761574575986,-0.9977324976919492,-0.880001555059692,0.9942509715314053,0.723169809133366,-0.28098912320208175,0.2008479783347293,-0.052878039896094554,0.2626711365704881,0.04190431203604843,-0.019370700437588102,-0.21962227596026732,0.1466961873735315,0.06776307486203573,0.21509547660881131,-0.06442689806932743,0.43628180689627216,-0.035547929383620426,-0.16513183460484823,0.17045463633735225,-0.07813194409066482,-0.3900440967912298,0.06570656233265008,-0.03862128081265701,0.3965624205658024,-0.24346185802511897,0.32270950924361635,0.3930055377162688,-0.23818181069935213,0.14737311497323904,-0.06568124992846666,-0.45422833108274846,-0.041518585689458015,0.00816141998263296,0.031434257373480975,-0.21973695069774574,-0.3457941316310247,0.01781580090329934,-0.14863779625790588,0.034896842099981056,-0.24604283953998984,0.03346754654287276,3.2765514490947645,1.2290755962331832,1.309755165068295,0.9762390291581374,-1.2426836576495965,0.1721531417562951,-0.20252532515292615,0.20230960086870067,0.04581604007792591,-0.007712465011426484,0.15186897627606472,0.08438486738972428,0.1863801487096825,0.06553713289300177,-0.10804049149264544,-0.025761902291033284,0.23546705255514536,0.12642572520647094,0.15931074189525207,0.034890546119337174,-0.18733540579345478,-0.17231584494723692,-0.13727120764194758,-0.10622556195057198,0.3104623339073723,0.006188253730588687,0.27164319268522347,-0.1667377222410878,-0.04346144204111785,-0.1940608272148687,-0.7340155967749955,-0.3991828470490196,-0.021177313151727255,-0.022770870754429146,0.24487435717295528,-0.08573981916930398,-0.04062267483362797,-0.49269350201221546,-0.19529575408477862,-0.48623283762969394,0.10572617238038849,0.08947198493668239,-0.06671407490884579,-2.4606837792735163,-1.5942222983092698,0.09726564901590821,1.112757842460197,0.8653756019753809,0.006671221214575266,0.4249387664363974,-0.1947701623985997,-0.15777802998151533,-0.11081043883605389,-0.17879696277479476,-0.20966219931443547,-0.0857892098500334,0.029742789632069434,-0.17858620248854695,-0.02073513652688969,0.06730680579598658,-0.021918275106447362,-0.19083499503921825,-0.1946867772124762,0.08525462189915761,0.014400452520256917,-0.23561038498824055,-0.05924493047522195,0.007462353304148441,0.18125077491184013,0.07226836891767885,0.31961411358376274,0.01962645700304084,0.8337254825932526,-1.0212670582758283,-0.3229472323723775,0.5299944143687813,-0.44529841655712027,-0.5560591566520601,0.2455994625291111,-0.4103698537003246,1.7316486715136312,0.1696212161088745,-1.1539687976528423,-0.30482282027947405,-0.013315525268780003,0.15163032107129085,-0.11098212965947428,0.04942771955693897,-0.0810764980980793,-0.34738339750525854,0.4051618289426803,0.4302196639015504,0.219046167485096,-0.12757699416415108,-1.5092913482976826,-0.4161286927327546,-1.7467414387511537,-0.251963528769995,-0.06703746407992009,-0.6927738093488741,-0.6871858658254482,0.04438140519990298,1.1983282197879477,-0.8122609091203672,-3.0925803787642057,0.3354595079440106,0.04164732340645882,0.5159042971270568,0.941299169884925,0.9654137425213567,-0.6368092730858856,-2.6801116582192264,-0.7479106238265989,1.2615159342558093,-0.23165906407796114,1.5525241116120196,1.478380768002797,0.2431904950600862,-3.166125285427386,-2.0062816717255547,-0.5646937831417226,0.39765107276288014,-1.0050934285805966,0.4247530345124415,-0.9405810892479098,-1.810223943265598,-1.0626826720841696,-2.4755359815540907,-1.0405067709755706,-1.3325983241086636,-0.26355655917406173,1.3982282119769263,-2.249581103909052,0.7726409468342632,-0.4949044389171984,-1.2202666640813147,0.2474807195883061,-0.18550207019421563,0.11711015697089582,-0.08751780043831435,-0.25919844105572454,0.021488495405346777,-0.13824885738119586,-0.00481800612261712,0.30137279284223184,-0.18973275937799594,0.1119573798541951,0.19512166781332005,-0.07870884747274484,0.22627507772205172,-0.248250575349798,0.030094859810209245,-0.2034557997674631,0.1865718991349746,0.03264423667029113,-0.027126141763502976,0.48124352611033844,0.2497670349256861,0.3386049897124938,-0.6101602335587887,-0.0020579298947144085,0.2504510300684471,-0.4267072411395128,0.1564858455899533,0.15768216336391447,0.31728389835075954,-0.11568742153965134,-0.20246424969904353,-0.2531122507973364,0.11270258978478802,0.3177175611450408,-0.5158165463643001,-0.4801202414161882,-2.454126046988929,2.5062067904684793,3.1133941532811926,-0.5999526140458336,-0.2862582596478983,-0.6727099326128481,0.1777955433590824,-0.1567044480531328,-0.05285894001054097,0.09451893383976123,-0.06562196344702698,-0.12853614107219735,0.11130418073978555,0.3869035707222862,0.1309598999775579,-0.17925977418594793,-0.084738887282319,0.1577732333670805,-0.002048176142230606,0.1200465491981187,0.24320014295504627,0.40054884209410047,0.021403071144948892,0.41756631901541996,0.11909923519940212,-0.2326262298295624,-0.04035091598565644,-0.1668437473449971,0.23610381354783153,0.29083066816588266,-0.4288234887911462,-0.9060381032290757,0.043537264272898515,-0.4338078577769872,-0.06508442752139887,-0.08129338525062954,-0.06592899990543374,0.5767641536193017,0.8742835001331656,0.0007357511150898893,0.2947613552757514,0.4084589121857971,0.5315166379854954,-0.5505240580634987,-2.1069033707682854,2.1761033064104547,0.6971942281220772,0.268956973860878,0.5190711098511733,-0.06276290119205045,-0.192378432617118,1.0329546678148867,0.729877555790977,0.9259545796935822,0.15707592838349263,0.11266214172528914,0.11713581027327227,0.06962346296961598,0.28165659993817077,0.02152987301989066,0.10782737859568907,0.11400978881164744,1.946853569939409,-0.9207519997431343,-0.300415890131478,0.17784522117596113,0.09854856167095172,-0.08472080840663035,-0.16057740919791735,-1.7369971842618053,0.22872848385024477,-0.48235212956001544,-0.3157811917636439,0.4628945205752782,-0.09108179007755267,0.1556093272653493,0.16778460730075498,0.4335138071569924,0.40769012937084614,-0.08090165899398694,-0.1746772349654267,0.5887003444562051,0.0031390448222008024,-0.002961922755649112,0.014746574300428727,0.30207638884713683,0.07173435478142617,-1.7815168661592828,0.702582395374987,0.2446455222102523,1.2552358110083808,-1.5035197199805075,-1.4022228956008147,-0.03529359024409349,0.5512737398074534,-0.1477023999971225,0.07272965713494794,-0.3695769347178212,-0.07953501918131504,0.3538405931763643,0.22517176425238106,-0.0010942328026515905,0.2566701509271536,-0.18680350837487716,0.4017483201911591,0.15208311591637838,-0.04544239139285641,-1.1003634573845036,-0.00030775756167309934,1.3007035850702295,-0.14097184111965394,0.12190787685020263,0.333552052374701,0.5760473890537363,2.3642296299028196,0.530455414240492,-0.28062750096938993,-0.7270548091446086,0.6791857907007305,0.13415797527928316,0.24040708946775052,-0.5849444379340416,-0.045160157654459375,-0.2803969393175537,-0.3431994557030751,-0.6418905538826043,0.24077398824875484,1.169602264428952,-0.1586696077130673,-0.46688841938544434,-0.8782889954493897,1.2298594795327598,0.4395343926835713,-0.6757304744697595,-1.5105313568413483,-0.1457325811675139,-0.0036159959115840672,0.03158168892724388,0.238838571863365,0.1719481236849357,0.08840947952677691,0.7330686505370784,-0.22233517469960867,-0.1898904635622151,-0.1184884053882876,0.02664731986247422,0.050739599574972725,0.0971294595625455,0.0006836848893322632,-0.051913523113569116,0.15987927793246137,-0.12398621836894948,-0.3669296130063736,-0.07532269748432824,0.42902725301107414,-0.22159742599292767,-0.045158989879420276,-0.3485295702422245,0.17632059190495503,-0.5242877867566457,-0.14164185585078037,-0.18301046437475504,-0.04752303835854405,-0.04386783280622789,-0.30706074149611184,-0.8557688983911328,1.021339286821208,-0.572243653470493,-0.12437987817342579,0.13810271047686193,-0.22859720550390045,-0.15305827800269267,-0.18393632501770893,-0.2595353561656472,0.2580488092596633,0.32176725320846994,-0.37368298337429684,-0.3182386940901773,-0.134371389390117,0.5687729142423162,0.16297115469318488,0.19310849855608472,0.14968039601802935,-0.026442357395018715,0.1283657890282271,-0.2446530056286779,0.08998492309639092,-0.1137747899167412,-0.10806094524084948,0.07969562553584596,0.06140459077595737,-0.18580720129945855,-0.005143510984191059,-0.3213622535327249,0.23731253378795417,0.24900398215007088,0.24248663434571904,0.03267621755754151,0.12341540432570629,-0.7658068469305167,0.18295032893566174,0.20349163232039744,0.02125278716812235,-0.1865487949654953,0.1056750613059935,0.3756741038126234,1.3773255677608622,0.4886261251721234,-0.43027140643258005,-0.27586754210794007,0.6915897046508437,0.03194466031567948,-0.6874403580037917,-0.18351598665001603,-0.09124469662635751,-0.19659282490854282,0.1372026720061621,-0.04889884166045927,0.39044946158380917,-0.0016081268601798654,-0.06326668963767622,0.045817689378442404,-0.037067846501423536,0.4001338182340607,-1.2381790073389527,-0.0704860224101805,0.03857767405953545,0.541564645734679,-0.03939287906613515,-0.1997696481852652,-0.13131716730336582,-0.4169128466391033,0.3706798710710859,-0.05347822745994544,0.23921960644956997,0.24087048848788595,-0.18440795729638015,0.24969428051208498,-0.19379924268775497,-0.4261925306156231,-0.22530465873466743,-0.5339179109476638,-0.026061003717804496,-1.0545784491752623,-0.19419293226228038,0.2017390065086402,-0.2054545772239824,0.37057687104926246,-0.018335648918182543,0.3438618649036441,0.17687392057710308,0.5595923743161572,-0.19081038254801655,-0.5735509837133697,-0.5430408216627448,0.22157900501772743,-0.30839255892842726,0.46244390944161773,1.1486436901088226,0.7242496908392745,-2.948296837912874,-3.371516774542799,-0.09541124594242835,1.378505989379087,-0.05452973684233295,0.6534917016935651,1.339480863364645,0.09503303386171279,-0.71541402734474,0.18890459946966043,0.16597169441526183,1.125975854963094,-0.14380176284780757,1.2580632733143349,0.08234280889942416,0.029183327109918618,-0.43291347893462884,-0.22149607800637833,-0.09183992675450434,-0.1282064462041542,7.039019696867359,-0.13123891913804075,0.1535339120027851,0.16905983552841025,-0.3826117653758579,0.6907797828904294,0.005946454624477403,2.858913517470969,6.158218876738483,2.0608597685060697,-0.026806891539498782,0.1556703283147904,0.189469000429022,-0.15164507682664508,2.0248388772697568,0.1657159647230575,-0.23778200270326327,0.027643003096825994,-0.0562077587748663,-0.4170383186531725,-0.09428805686310172,0.8728747812077969,0.073812432409356,0.2038458360084282,-0.11542805075740854,0.08267047851810114,-0.08664560475349337,0.05643414709184715,-0.045314937298534703,0.21400910482571317,-0.2734435898370326,-0.024625905357042,-0.07089206870747802,-0.283868515603672,-0.0018284753742310218,0.10457858948826272,-0.028374492567632727,0.3058805346432821,-0.025253146042391574,0.1522584378876443,0.006213989626123139,-0.1181730370205544,-0.023331214372943044,-0.03854891764197409,0.15685057358049187,0.022767966493008992,0.6987406475210757,0.48755204304818395,0.7652277730847489,-0.4387919176854722,-1.0364542295157986,-0.6166458541865155,-1.1946878369135676,0.8919655875998325,-0.036868949565230125,0.3156674557086221,0.374429353419975,0.06610231095104978,0.35875030609324704,-0.6221235562263809,-0.2661318418782414,0.549317519773957,0.4390999142044989,-0.11195717458768674,-0.17363655692211424,0.15932493717311727,-1.906318979266661,-1.7244605580274508,-0.5574417549461606,-0.387499938898334,-0.15844302531678825,-0.21059271579932412,0.12174832469863386,0.3106922539984479,0.27915382630947994,2.140286142288641,0.06893870110013159,-0.4984738460872444,0.6545044972988878,-0.04187453882120979,0.13770988906543152,0.656727326469694,0.485730582880624,1.460283530115822,0.46522481448365677,-1.4342134196585656,-1.1463515599499945,0.28592158837127163,3.1288275152411718,3.997942568648029,0.34905085383090684,-0.48725255140159196,-0.43747822261082137,0.030928273295671868,0.3523399813330733,0.7604278407068564,4.4425323052409516,1.474297539590615,0.5441837255379981,0.4273863893138118,0.15562807516471255,-0.46673336529753023,-1.1504687063564614,2.354924405177553,0.05939487406616749,0.35364864814973945,-0.7596783076058019,-0.2304653518421073,-0.36176118480609215,-0.8008583036623118,-0.3131540799222043,0.28110494835188177,-0.15132762330185823,-0.16038246729882139,-0.24916641413877497,0.5363836391596585,-0.28272884988701685,-0.026361638497266318,0.08107862110688815,-0.3596460840727087,-0.1595786747336621,0.06876160299451947,0.10168085634845109,-0.26181793705648954,-0.092064141378716,0.1052217436869982,0.06776640056319526,0.5262420277171144,0.7317402074040319,-0.22246861234044182,0.10828824057589602,-0.1694589530971477,0.18769782446023464,0.0024332875415989993,0.14167948673892725,0.07498188178420058,-0.02480420601890168,-0.3230707881812393,0.13643674002335793,0.855739428112698,0.07428713064967085,1.1495163214852726,1.4321477420660231,0.39007946610894423,-1.2045587809844889,5.630483903619006,4.521843125537026,-1.8235691738192439,-0.3827514357962169,0.0017842856483654209,0.7818065747875598,0.02024418629713115,-0.12584673530941445,0.0010492079765407171,0.13648458577670813,0.2748093370057591,0.3767034317677161,0.011572643998728767,1.3966985627364765,0.08807199546418025,0.661308063741498,0.09937039149436674,0.07029827016127344,0.23808990614203515,0.8119525966531063,0.3209192607020013,-0.1756226448863447,0.03688834296872883,-0.21527690211600878,0.5029485424941177,-0.9225050281662021,1.2999627376730012,2.1002135377083615,-1.004870802424087,2.1118707802955403,0.44929307643929545,0.13411669222631128,-0.35357925308098864,-0.15997927737136725,5.111111001846312,1.6860580598383723,1.8564386117616398,-0.18981946573116634,-0.21302553686762743,-0.08407410846509093,-0.07571846828388237,1.0479701329866349,0.2486384351479504,-0.5690660955269552,0.34234346057208026,-0.2495369871852728,-0.4865540670146465,-0.17139690156604842,-0.2883235823503808,0.06786805587763381,0.4788545796772909,-0.3767809227647947,0.17050687236327017,-0.4184128188822876,0.03510792910635234,0.7924890121231735,0.002878970957452122,1.7256560701342922,-0.04004551454115953,-1.4212895796105744,-0.1878066994306795,0.06833184351746248,2.0918533642320467,0.06593891758216204,-0.5567140051682928,0.657172194067412,0.44537949730537496,0.47257424390606245,0.3845850781902535,-0.20805364409493432,0.01631001804944269,-0.6062833470684417,6.337779928901483,0.05134821954530766,-1.6663868586499766,-0.6899986138862766,-0.18541637083152152,-0.5649857423369538,0.35958420450552236,4.600697767607929,7.624741168457832,-0.7390520024421016,-0.03870214540754442,0.1692968320677856,0.5840167070568693,0.768100466461747,3.105498102538079,0.09172915153748853,-0.08182409908657529,1.288975779052924,-0.35151250833073433,-1.1052611334964848,-0.8292480258796008,-0.044280599339229426,-1.3328733006097806,-0.07064295854518629,-0.4660337220222566,-0.07865393749754482,0.011352400576712633,0.01792625867070447,-0.3791851880007174,-0.03932694317119,-0.21967219804134727,0.11154872083756569,-0.29413510888266015,-0.007616468817933131,-0.1383087615580697,0.03330793894499008,0.12016897409528773,-0.054000674810601786,0.4895358712974927,-0.32141415939574913,0.1355176392710867,0.12788665618649142,0.1981779551385676,-0.397364551975694,-0.16635546618485553,-0.8232666630876474,-0.04594101806658576,0.19255970896214789,0.0635118910687637,-0.5810529293652136,-0.6640866115549728,0.285791786540449,-0.22686355043250347,0.4935583247523653,-0.3150789975811219,0.013925381540589844,-0.15279620518688428,0.2465456591783935,-0.7809999245850078,0.4278033960507796,0.17657528603280576,-0.2929053368475349,0.484463320197885,-0.23631729074244553,-0.31776427414341246,0.10870705922197066,0.7514257764241935,-0.6775255465752055,-0.01420319668007438,0.1054228217851163,-0.16268291540143737,-0.14644277129175493,-0.12315018260618175,0.03216650880794967,0.20056881471995475,-0.07968468613037226,0.36306186561423115,0.10586522669268003,0.023624649741140733,0.023203943904563516,0.1658366631913056,0.15282444542128715,-0.16560674651866394,0.2187777381672249,0.15316211405080296,-0.025626374274169913,-0.07558778112229048,-0.41145314085107854,-0.06478628883238689,-0.040347475862987904,0.3189972064676036,-0.3995348074833017,0.19954778690089658,-0.49628907594532923,-0.3753028868603272,-0.19406321990070743,0.2327135765050772,0.08580108028506109,0.33122421322977685,0.23237282085856759,-0.10638391604544274,-0.2907597704689459,-0.10954196548043868,-0.03191254797639709,-0.230337801968725,-0.28359886585382715,1.226879087222776,3.025373727975564,2.5974324623384857,-4.927466489560788,1.6782140584162004,0.2780910115428384,-0.10489356310143139,-0.05455885110320545,0.397798551547756,0.18029946813420386,-0.04242355261768478,-0.015629797384111695,0.8274681022123933,-0.1681690126586702,-0.10048013467708304,0.3383164009222386,0.07333415578309772,0.1039666592026929,-1.3974669469152916,-0.22618590230957258,0.18427762381990834,-0.16167015790187927,2.049681735032854,-0.9295734277602382,0.8131314202855915,-0.3269560312423967,0.11683136180119025,-0.6097477117643338,-1.5004916623188094,0.3311445855732187,0.5933648169488008,0.06683475261805653,0.009528373926782126,-0.3346349734497234,0.7252611820000197,-0.5069187398189565,-0.6790564880525548,3.26771286209068,0.08963619102894169,-1.9776955098740783,-0.18187378781814212,-1.5845317303866209,-0.4037471038695621,0.4562078451121562,-0.7686465899917618,-0.52667401820651,-0.5314302398952215,-2.1291761762705628,0.17649572660714558,0.6105379000203567,0.16258121002213502,0.046843864350525045,-0.05118066450838856,-0.019719632162083115,0.07443597023929356,0.010236018115725488,0.11735716172376208,0.1807022712357942,-0.1292303940502449,0.36674907833895404,-0.07740207615170026,0.23214024433116928,-0.0022562162983928457,-0.10689140713869034,-0.11023624936607736,0.025671738051839896,-0.3145309588864859,-0.13035913381093017,0.6916956169185355,-0.02921459636132602,0.4033898754146405,-0.47169683512278066,0.41159975879409927,-0.1427751883490802,-0.11011616466257568,0.5822890757541167,0.1630476306757689,-0.26545627344960426,-0.354800579317032,-0.14648452621946595,0.41142934007804743,-0.21350675484571327,-0.1110473979870744,-0.3367373956279949,0.0960415123261526,0.6450749718723725,-0.40438024186472843,1.9324474782629344,1.7432262632275848,1.882705136300723,-0.9328008022038541,-0.15225141900163075,0.3501469876503993,0.0411469140477551,-0.05191753104146464,0.006904321898087259,-0.1240792370163573,-0.7209896899179451,0.3971930116808064,0.1353138390977938,0.025548033435967135,0.15898414987411427,-0.258247628505538,0.019062717326663717,0.05583820116167982,0.37772279527664737,0.046242251331228425,-0.31905229708205696,-0.05750473449014923,0.25464362487859016,0.1458642157165972,-0.2722618542396908,0.49125694295704425,-0.4395153418620462,0.35236749114564847,0.15885673664968825,0.5308391335042586,-0.10556087662054983,0.020990222561414397,0.09464142904637902,0.1397361308043975,0.11701605323536494,0.18213610936171404,0.24133087432648892,-0.1522474594525257,-0.1276059974795116,-0.13969959536451096,-2.105925738156496,-1.7838022040841055,5.178216486441897,-4.000722541789838,-2.0276994742074668,0.4406324518029012,0.12609491762130992,0.06131851810256434,0.3226955732807737,0.4229890418218177,-0.15971571075352314,0.046777622943414456,-0.3715365969037236,0.2094631416165085,0.12888934870215946,0.208634121707601,-0.8805845767705602,0.04154572026519752,0.057087349211562624,-0.21888426130667368,0.022629182462506524,-0.8128984602411935,-0.6661407159959889,-0.03410261324848869,-1.44452906300855,-0.7044173835626885,0.1524576269823215,0.25738177957915986,0.10151289201643134,0.18046926243207395,0.3937325438762728,0.16657318410516578,-0.20870941728766979,-0.7680114886931436,0.8632950248616696,-0.15747395513806395,-0.5600942459560965,-0.5815890251432466,-1.0788986137311642,0.9132186424868964,0.4951770973103138,-0.08441702123594512,0.6989952469693497,0.699299306680776,0.2910297829673285,0.6671324919326366,-2.5281731106690324,-2.1039599505707325,-0.8319063541917148,1.8087427080832523,0.060062451320364536,-0.08373731242953643,0.6235591699584756,0.10280386859421696,0.20068057198970843,0.5615745360029096,0.4898686635353066,0.403139764690107,0.32887805235399503,0.14769210762949025,0.009557546414713503,-0.17198651109359042,-0.09967942170207189,0.05626754360858106,-0.14333296427563688,0.29447078496329276,-0.15245853619062383,5.8417878809517445,0.5441033520156431,-0.545647301397334,-0.8562502539405354,0.4845859514426587,0.01575944381000654,0.10217175053528196,6.304007358652883,4.488877257589486,-0.6460636995857071,1.900719520849319,-0.24605363743647096,-0.015971029540831065,-0.7061868851216944,0.2522243539471391,0.5378188287330639,2.941759724152952,-0.15511640413238917,-0.1948165147097402,-0.38071270539548524,-0.49704564629391995,0.2862668972720175,0.21392756566688564,0.15443444453263475,-0.9926177171288547,-0.31053612184407847,0.06894590529032744,0.01898779086826045,-0.08484292856839937,-0.2210318748596119,-0.23791088500193755,-0.14695197862711723,-0.02847279968414758,0.11506733643023562,0.214095330983424,0.05844024163288298,-0.3695335476991414,-0.08527909343577798,-0.11528191447765951,0.07469540668623949,-0.34701337869907617,0.005807305120744407,-0.01784667017498405,0.152375455975112,0.09036815744976266,-0.2839112557150742,0.362937966594131,0.35607293535433215,-0.22051676346832325,-0.7566958190806541,-0.3667877170975471,-0.11497646053303714,0.04647561539332119,0.44972817189432834,-0.3287934590157683,-0.17676495966846623,-0.811967930197912,-1.1768285216314136,-0.6472700803364403,-0.37918478247821635,-0.43872259380208356,-0.7247337140857942,-0.6334676402293454,-0.8436245303099706,-0.07525757741558589,-2.1256940384542973,-3.55999635888921,-1.5628238716534477,-0.4054155106986971,-0.003712184506770859,0.21135293552979845,-0.40089511286996027,-0.3762567734934242,0.46937166934270985,-0.5123156802159312,-0.15632226522719228,-0.2849884546994993,-0.06866163701830033,0.10908339699296972,-0.11998765627246856,0.41508704071246055,0.36571950553071575,-0.04010788684890933,0.3296201156168144,-1.721443521596445,-0.4264375120245201,-1.077362577705379,-0.11181235586633781,-1.414360910121871,-0.5131793623476585,-0.6610776393892166,-0.2452128107919844,-0.056599007570617206,-2.7857241573168965,0.6301639206881287,-0.2877884566828479,2.1060084546446483,0.22744378645027943,0.39418891981914145,0.18571430633995448,1.502650187929361,-0.4389981888956242,0.6417517969092852,-1.1982118083257016,-0.3403606917286714,1.1324081536126025,-0.3285349519976605,0.4962704157017343,-1.1364883504990915,-0.1708501118171312,-1.2827335569060445,0.6143910156536397,0.2811636018185954,1.0006628789976417,0.27792559987018844,-0.0321487462734352,-1.0572470014919695,0.07534415165877544,-0.4417221540823687,0.061679359333227754,0.003800756466759232,-0.3703784028674285,-0.24044218020693345,-0.49880142688674256,-0.21209823143686257,-0.36432166645929237,0.017323747608347033,-2.7357011076936897,0.028593003912596095,1.2067091541708057,0.29794304686694134,0.030787382882205942,0.32700243802537526,-3.6347833513265764,-1.0803731244182362,-0.15617790635518944,-0.16417181646727605,-0.5678191571066199,-0.5022444015250539,0.465935311236529,-0.858080139839956,-0.06693768459686118,0.18784757592003168,0.6082351001835278,-0.3631797409527901,-0.26434919837783083,-1.2559562053553799,-2.2356510218074965,0.4169003640138981,0.3524020386235426,1.9308603740951245,0.6515022405694106,-0.4168318716719516,0.16996493258040146,0.25020392654953116,-0.09618131394826221,0.20150604238069683,-0.2949374260657867,-0.15321650059477754,-0.5552302763493862,-0.3516137268223513,-0.007645517157912288,0.18041842612503156,-0.3836551261093411,-0.4940780082922394,-0.5826015979812249,0.19994166230627505,1.2720412360302975,-0.3566108014071953,0.19977081798792148,1.0190970215226656,0.23465346381405794,-0.4250837750712982,-1.377071144354775,-7.541628272241993,0.06301050055094626,0.3744096371642707,0.6758334497750258,0.8391823053285362,-1.4442880512814908,-2.304989621393295,-6.356405885917903,-1.2424304699760749,-1.5546142614550236,0.4138643870357353,0.4070893142205595,0.5595092960654311,-0.12410615868800108,1.042784778823126,-1.0748686352770918,-0.9442842263149915,-0.535086305472379,-0.1380190453030471,-0.27093151451091146,-0.5787668933022855,0.2650882811321683,-0.43490897925726807,-1.3749896366278151,-0.14485664158103084
biasActivation=0,1,1
[BASIC:ACTIVATION]
"ActivationTANH"
"ActivationTANH"
"ActivationLinear"
