encog,BasicNetwork,java,3.0.1,1,1320895507850
[BASIC]
[BASIC:PARAMS]
[BASIC:NETWORK]
beginTraining=0
connectionLimit=0
contextTargetOffset=0,0,0
contextTargetSize=0,0,0
endTraining=2
hasContext=f
inputCount=42
layerCounts=1,64,43
layerFeedCounts=1,63,42
layerContextCount=0,0,0
layerIndex=0,1,65
output=0,0,0,0,0,0,0,0,0,0,0,0,0,0,0,0,0,0,0,0,0,0,0,0,0,0,0,0,0,0,0,0,0,0,0,0,0,0,0,0,0,0,0,0,0,0,0,0,0,0,0,0,0,0,0,0,0,0,0,0,0,0,0,0,1,0,0,0,0,0,0,0,0,0,0,0,0,0,0,0,0,0,0,0,0,0,0,0,0,0,0,0,0,0,0,0,0,0,0,0,0,0,0,0,0,0,0,1
outputCount=1
weightIndex=0,64,2773
weights=-0.7512305189321216,-0.3731369647546216,-0.3989208098327379,-0.41436838943925564,-0.21361425789928895,0.13931900346772533,-0.5676190620722581,0.32672292345429266,0.45951197537292215,0.07796671579913003,-0.19957939836052702,-0.07521261582421974,0.2893219464436593,0.33164331692321125,0.37980036145719603,-0.46836803614595307,0.22694190196530684,-0.4101822192765431,-0.7289121710658996,0.4810594352280992,0.3523376763538381,-0.2559781876985596,0.46502705083544743,0.0052075658002644475,0.15188827797539567,-0.2330159775735663,0.6500306744332727,0.2721857347030925,0.0862934396837066,0.3587767935168184,-0.857208324090126,-0.3024116540095525,0.364524517408375,0.7095425687251992,-0.1653979290893541,0.08594302445498886,0.23128718170120938,0.3432785341403986,-0.5954541950794794,0.18936893131426558,0.0881631033633051,0.5889883794266668,-0.14613932709319738,-0.10749803905980918,0.18110248704216883,0.580085422928342,0.15892017780633935,-0.2979055277743404,0.31008214431065867,0.18893477374933543,-0.6754884467388438,-0.5353042067015905,0.47583048204926853,0.3977249325711548,0.2491166201473367,-0.2961138381323992,-0.16301838468490298,0.2587750497755054,0.14290189235398235,-0.13461402585619672,0.3310711341224931,0.015395632774416395,0.2560085487574443,0.1373178341448668,-0.07660879796289669,0.14347954763084417,-0.2249049516091556,0.2952123295352906,0.11630850861445083,0.0884427413695057,0.006474036798538405,0.08268502181637469,-0.1060182284806394,0.01521618281023133,-0.12697889031636764,0.26926770023633595,-0.010219742196407876,-0.06613919063544284,0.6141065909629678,-0.36879594832823914,-0.03898727115376358,-0.0848466097407852,-0.14065826237328583,-0.00692426521351911,-0.08140377107706644,0.31964123361812513,-0.11179489765351033,0.16412584293114701,0.05675525212434749,0.1292035395878946,-0.1975694698483223,0.015257889056590621,-0.14176030390777758,0.019123205488492737,-0.33392484249929494,-0.09062957837978876,-0.5075661692813809,0.32028709146014306,0.23435113816750586,-0.45827974805245286,0.6526884875808389,-2.049224590534139,-1.1787049444664321,-0.3927217879761441,-0.32290722543837175,-1.0624802579274732,0.1348239446126628,-0.11255162214097798,0.08067483645319622,-0.19745836831064265,-0.03968396270079471,0.1425267909291585,0.06846068998720681,-0.18155571517196664,-0.22613613650605494,0.1971442345065649,-0.3775645091934645,-0.2261059648966021,-0.24926440960380328,-0.24833468962627314,0.10843238951374755,-0.08369738058197597,0.07308038079680969,-0.08995024694668662,-0.893726276422259,0.13317631495489057,0.001572254927180754,0.4261873663247012,0.6795595433929532,-0.31538902326504653,-0.6638635483657226,-0.01442844035540929,-1.0810829403056341,0.2629223045336134,0.09399238629157963,-0.14636244818355604,0.7582534865651652,-1.8764918812474871,-3.094910449082433,-0.9197421071814952,-0.23048420781308587,-0.14011517339508814,-0.007920055399650076,0.33689317980140576,0.9076340005716804,-0.1954306315403155,-0.16161425448123437,-0.030138246713467494,0.10619656081416182,-0.12108324743552387,0.043321898765865285,-0.07734685995542771,0.15397121919314233,-0.17957631101268168,-0.181931991240004,0.23177010906058607,0.08634745870728532,0.07120845879989687,0.45343601584533444,0.6829672000243919,-0.027885541757585897,0.5494560902265381,-0.17632765153430086,0.08567773560502843,0.25210260767566905,0.492039553705163,1.0219328053888657,0.042147547855737856,0.2310001679014455,0.49973420673986524,-0.4225400167370239,-0.07426370721774628,0.062578797931624,0.8356486706243842,1.7297266352444964,-0.27189776572896635,-1.4385694605113744,2.065650759075163,0.16749070321120169,0.6076157331907313,-0.5540489016946429,-0.09522465469574083,0.5835501150283315,-0.530931620203964,-0.3875331633807645,-0.6497914246951264,1.1900709009614616,0.9106053441212404,-0.567131384618618,-0.04611584738573672,0.2417048007503132,-0.08201018665781608,-0.0986596567208037,0.08642722081109999,-0.20386842868401828,0.011210354022469988,-0.16829337822549817,0.30098519620944725,-0.11179857373575279,-0.1649254357915645,0.10210409240704038,0.4154297684331911,-0.11160688989026006,0.02899621572341628,-0.10066436762827025,0.11778086498732496,0.08905091008300857,-0.22669782852992926,-0.09352326881099803,-0.4955524072983257,-0.3511999498453988,-0.2805159235677365,0.08701869073955486,0.33058506852222885,-0.32264998483508883,-0.38318821054762386,-0.5071816937234966,-0.008829922217320528,-0.2658837762155266,-0.7669653714472732,0.29052605639895945,0.3282846255449645,0.44161730379061287,-2.6193821970271247,-3.344702415239935,-0.0008554266986237232,-0.04977757795398351,0.1400035211936627,0.058253902340680515,-0.14278955822900347,-0.3560407430381894,-0.249842327756598,0.9416402514519546,0.3381618142179304,0.7287746728137646,0.06209073930617515,0.11338945038685594,0.6412596639568097,0.07903487175140393,1.4795495989294134,0.2834545599987799,0.04809404822449881,0.23186821656161422,-0.21897274466935834,-0.33797724433384163,-0.030792162489605954,0.12885685902236438,-0.011400917342699478,0.24608353863443005,-0.229579158583803,-0.29506932924177104,-0.21177319167019484,-0.028252454629842737,0.755715151634757,0.26600820494441135,0.12171028967038723,0.05155000134055618,0.484340665073484,-0.21539508912754343,0.028374158950000946,-0.32345209782252593,0.08034784424176716,0.002242369641220082,0.33101500910332204,-0.012797207779040127,0.9843053294857705,-0.7999854236590082,0.4064824541057782,-0.7399574585537764,-0.7484902749416943,0.4888877978859854,0.24048143237878986,0.024953538502372332,-0.9728982630820353,0.451280292584803,0.6690085395944987,0.3813530466911403,-0.43600788632600007,-0.036643341532349494,0.07477854695215398,0.8351876573712189,-0.2626338184955503,0.3445861502253607,0.39898188193892686,-0.16514162665590762,1.4690432956539636,0.35508966329144054,1.3780528080305015,0.08081620648672773,0.2720994976745694,0.08182139625795064,0.14436142805701768,0.3326283976110941,-0.07012666501014025,-0.479383213087255,-0.06371235719445348,1.2198899830046537,0.026127565702542103,0.9020165237846723,-0.19807054544043573,-0.26913544957259533,-0.560679821205515,-0.5508605950461305,0.15806683013203443,-0.32978844684652603,-0.17111888570257644,-0.7738149255752627,-0.17717264280150852,-1.156149089594105,0.5259117798794638,-0.11823237480182142,0.36669176160703343,1.6251020127320994,-0.43490934878200493,-0.22592154554157412,0.199500511049069,-0.5366173380475009,-1.759868922035155,0.5494363222201543,0.248945114804643,0.33269568770371943,-0.6293951394141525,0.09793058576656981,-0.3486598452983112,0.11053525579610061,0.048987069477458546,-0.18017143835750027,-0.0531514611039737,0.07660776392165618,-0.15048883097536114,-0.33178590046335454,0.11893425131699292,-0.12094449851388,-0.15137120220688616,0.005002420300302057,-0.18578257606103488,0.22086926249157066,0.09688714147969617,-0.05664211019618387,0.031858541727267674,-0.14481811212843068,-0.052783095140307164,-0.16702388438535112,-0.07347534883881748,0.05181323450630398,-0.1670701867781826,0.25389911780664115,0.2499469370919562,-0.15149618220845368,-0.3057228728134134,-0.5164825854254311,0.15562631246873382,0.9215764848630573,0.514793573640732,1.1012826334603605,-0.45950482209870064,0.360859572112246,-0.6884914832358492,-1.0760425307857493,-0.445693809813695,1.5275106809142465,0.07520466051044769,0.6468475178204817,-0.4593370592907907,-0.023305356042161055,-0.04497320622867539,-0.16915953005739887,0.19647567896995927,0.28495805272881036,0.2561479376541409,-0.19493019048385316,0.09795498103482041,0.06728991830157355,-0.25088475699362295,-0.07934993462254213,-0.16166958679815338,0.014863290946265158,0.16087940798819375,0.07607436814197517,0.8075173328613408,0.5351741565971,0.24443779146312244,-0.09443219891257001,-0.19362400687102876,0.24581630389509918,0.5921580720062559,0.4350576601256956,-0.0496579834147158,0.12773970306634247,0.1578881146811338,-0.5974138971462863,0.13277042370605746,0.17253134895762665,0.34646265321256964,0.8280314294131992,0.6088619277766755,-0.9979599630811707,-0.8211619034768717,-0.12332877642401825,-0.1572720916087621,-0.4596005309965917,-0.5451974045954412,-0.3429723560015689,-0.7848774418762015,0.369071504629815,0.016338616821004317,0.12055356030645693,0.08223294026609755,0.272148347308347,0.061618132046868945,-0.09999368326154502,-0.10133445626292972,0.13625183403392138,-0.0377672175623176,0.04307105228867192,-0.5881772678965759,0.24647614761200343,0.003708035692280661,0.002885951850640734,-0.15855852610544055,0.6086192564115948,-0.09648696865510863,-0.11540080808296976,0.1773477023482741,0.35521013064878026,0.1563125495564894,0.14029030776383147,0.3966847173045549,0.20240548220337265,0.04809234045284455,-1.143880437769203,1.1865532693188596,0.382352160692506,1.1754887528018496,0.2406295375142688,1.6960242119094529,-0.1593314359761111,0.024154557141850646,-0.9448909431378189,0.6760007468840921,-0.7255995184344547,0.33655212768845016,1.4540207327609396,-0.06958662381881743,-1.2811104688006218,-1.1691640838081927,-0.7511530032431031,-2.0224234073577296,-0.49510083497872126,-0.1618130377392426,0.018263292717527864,0.1679938570861329,0.15299441176790407,0.08510933435145594,0.1296219174087887,0.1764206408971713,-0.08456180318967209,0.31128119109341096,0.09058930581118338,0.29949800706610624,-0.16105260223259096,1.6493911484565646,0.05794562074911107,-0.05822888125173172,0.21755413683877606,-0.042044106969453744,-0.1924146726856072,3.1894696866416554,0.07649180306650355,0.15051747046107988,-0.18020516177283263,0.011503609175305308,-0.2479562672179599,-0.014337896844109143,0.6900681475227873,-0.8297638419517258,0.054096003444590444,-0.48431092127279324,-0.6185370298703784,0.20633674379338957,1.0442669994025975,2.1604474487510945,1.5128305573860574,0.47311357750538197,0.20852095189183562,-0.4590240387655325,0.6473124738966651,-0.8156981099330853,0.3046227458409737,-0.9520817606970307,-0.11484113979319671,1.132804352552063,-0.23807899283119707,-0.3513271263898,0.7580637617153813,0.03487716445801444,1.7212670030986321,0.06124143357628386,-0.41021449655861797,-0.1586675954248856,1.859764900731792,0.638407133781222,0.19529162804807568,-0.6240694779914021,1.0964618019485908,0.608698917261722,-0.36991544546780136,-0.928034150620483,0.7284784648434134,-0.18781837558804934,0.16469832559601413,0.5644336895423723,1.190022583251836,0.23408889689949103,-0.5342622791411633,-0.345117147726487,0.4000494430171451,2.356013153257251,1.4024156642493308,-0.41804721244044124,1.1072888515958994,-0.8149925277579545,0.12724223241385568,-0.17899947523647694,0.253407952225246,-0.4424445891162068,0.6922291072412669,1.178790972407166,-0.38058951400762703,0.166603993934896,-0.4890842862554028,-0.6517631649290572,1.4817477698862118,-0.7757684661471349,0.41063828437350386,0.3066833754166504,-0.19416190830523591,3.1653545481786916,0.7237196931700113,1.635866098709544,0.0820293699747791,0.17110818366363634,-0.6862127745076194,2.341491998732958,-1.0654569271486651,-0.021792543970177707,0.7849522277098634,0.14082262706690757,-0.6344969031600274,-0.9524050543145279,0.49211024309214324,1.1291528456069095,-0.2238580644406135,0.3812085231172312,0.01846844438621055,2.177746894858907,0.44527143799977137,0.6248910434493808,0.8680175133073467,-0.48182893790246367,0.9253757146519864,1.8273705975057677,0.42126264656578877,1.3099969295705292,-0.4221404095605699,0.1726677450275178,-1.4655307452231754,0.27603282540291807,0.31108318520012523,-0.9335771775396426,1.0869362444743453,-0.20360471624321036,-1.6128335925912451,-0.3905519295442677,-0.6559563056610311,1.0618251200936337,-0.5531747928826977,0.6760681015415277,0.564163906795704,-0.26876568999428757,-0.06086748611752521,-0.49377879529378854,0.06481339758548013,-0.07147650116972944,-0.2957195725816468,0.037099401533939244,0.058338764857114214,-0.11834897634145855,-0.0569155500572583,-0.059750614182250236,0.2561879436024231,-0.122764416350163,-2.19653066428302,-0.11677085429225065,0.27035585259305567,0.005449694892051149,0.037816510392982755,-0.1215980764395626,-0.08573125175731719,-0.25814405831935483,-0.2699061387667259,-0.3892890035062965,-0.23367819281443222,0.8577486969474979,0.03730562176434533,-0.1133293014725969,-0.3948005078580193,0.9974280777625082,-1.0699404012205302,-0.31791072448170216,0.28081827542365695,-0.1822761685976409,0.09686343146231398,0.34553035194309295,-0.8223970146747936,-1.4089012664582545,-0.9367379535355829,-0.7667621237747385,0.7103387651682479,-1.050620095387031,-0.15119901454619267,-0.18039944784966014,-0.06748440325798459,0.03813529557907706,-0.16117057857956976,0.05235280455895314,0.0726635154902581,-0.16227794987954472,-0.20553515922592935,0.04550294437967878,0.11129653912544085,-0.00425589498389021,1.0005661689056549,0.101780255012695,0.16986530734576843,-0.1477539927791096,-0.09342248425429332,0.03120405918495307,-0.3129068111150137,-0.024538967449972218,0.4297190188114046,1.3948040663493153,-0.3539006536139044,0.3357376858937421,0.05884595303625736,0.07731355183447783,-0.6092605407485873,0.8669619517549648,1.7149225456901163,0.24808963147783875,-0.07095184075802233,0.567239257810456,-0.6498292268427766,0.018706410476783522,0.8569513941285979,2.2128498977392064,-0.12408745597986506,0.3630750899205793,0.4603251118480553,0.012080023325859463,-0.7777513197954905,-1.4142503138970388,-1.0100407763891552,-0.6291498053821061,0.15069767582635435,-0.22782460763277051,-0.029990812679073005,-0.0662793445418236,0.21497784354739244,-0.15050936644958715,0.06254221379347007,-0.1407702220313013,-0.09400072282579668,0.049905455285730226,0.4272715459110481,-0.27840421780842795,0.1642039927310042,0.4607790912986698,0.19823857029776176,0.2553889849574679,0.6270234433141733,0.7860877295258347,-0.45941701980534644,-0.018524304493542667,-0.24057576586952306,0.7727448218366502,-0.008727967867187693,-0.7561194601094136,0.5359840509940615,-0.7868933102135263,0.5135895411045339,0.08192656158714501,-0.41340732485770654,0.13936459755988032,-0.1272075935911324,0.5549641163393124,-1.2053833349350356,-0.298109324027955,0.41799392842026883,-0.03422354663377589,-0.4662932290962321,-0.9017418813547617,-0.62874060212218,0.33976056569758206,0.8060343006566609,0.2922979326018061,0.29446991122738486,-0.3462056973349581,-0.063270316179864,-0.09706314090274928,-0.19214744167386189,0.050345307913904194,-0.27199951247629917,0.04132565037603465,-0.16821298201350895,0.09972790627096889,0.18561874125195843,-0.21728558073120682,-0.157204501536451,-0.03747317034538205,-0.14033349360943256,0.10717879628456894,-0.03799151983420736,0.242049399195417,-0.3148832207319794,0.09000972823365241,-0.05816261568064917,0.020131130918219144,-0.15094299440688447,-0.33297867222027705,-0.18604669514171296,-0.17282293698653667,0.5387393335877185,0.35376772280890884,0.38045679213313566,-0.0021918919893735827,0.2935234247007899,0.03529634737335019,-0.28057800202267297,-0.2974479098117117,-0.0810002936999196,0.17226369503598504,-0.37397584354531344,-0.021834804580113467,0.23394036173163596,1.3828206165227879,0.9362787512791985,2.129398098372349,0.5366030964252863,1.0750321261343456,0.37160922625643367,0.13980324742832403,-0.10734317479678214,-0.6808695538228396,-0.3334799162155618,0.1904179678267695,-0.526041698051729,1.1938474635602996,0.20643291254349788,0.042602082973487485,0.8234083501345782,-2.109354731801146,-0.08889753671788729,-0.9008715405155302,0.11137666758667013,0.6200883509864497,1.327094275827197,0.6653413062695605,-0.22306435755384033,0.5433693804711358,-0.7789446210158743,1.2793344389340024,-0.6168031610765381,0.358904223234995,1.4805338426221055,-1.0751639296331486,0.3416576386756269,-0.014167730888703836,0.12465478203481514,0.4425453820031576,-0.08993972547162705,-0.14358532459803228,-0.6080561769642744,1.3600326059519696,-0.7241069393324974,0.21530781834554594,0.3615790586049147,-0.545994917621917,-0.35468201619330814,-0.13422872675744899,0.3304596800843678,0.47072734449710124,-0.06369833508975473,-0.16970823320718656,-0.03289195703652306,-0.21732303847076484,-0.1547428641565692,-0.1233751912131898,0.6133716660296457,0.033819424244698325,0.0708927095574165,-0.14370401041518932,-0.20370882621276667,-0.012942485232918311,-0.1634475778634893,-0.18213358197672208,0.14478770322048387,0.4143103284948059,-0.2859227245114111,0.14601737246907115,0.14495045261460465,0.04314328083061095,0.20327048854408067,-0.33531255652982084,1.3036155449390279,-0.7264585408656976,0.1762664674521393,-0.2621644347779097,-0.20159259576106614,-0.11770897501909212,-1.831863942328682,-0.5901982416890121,-1.3277579286376273,-0.7279638039593624,-2.045321652704381,0.3876618077684678,-0.7499117291558809,-0.014923389451917542,0.5861898031418724,-2.783850346400604,-0.8934861005098368,0.04893870364297879,-1.5221567778077736,-0.180847840545209,-0.0165900808284665,0.967924431776448,-0.6350829609718336,0.016791011898659437,-0.014947522867802779,0.08707743331558918,0.13280619474298927,0.3163274902496579,0.13469922851195398,-0.43889796176787205,0.031626659005613164,-0.9411851888921958,-0.22201206847068897,-0.1646127823287793,-0.20359899372451964,-0.8850108768340166,0.096982564758923,0.43306771276100053,-0.49252767840585887,-0.12578892354148988,-3.251877722410438,0.4222311224292465,-0.5209145400858333,-0.04105638579401627,-0.15290098549992215,0.12145538220644791,-0.8953056529764569,-2.657975477257853,-1.2002825646119573,-1.9309229992457837,0.36775934309200253,1.1277127150845434,0.03778909844103111,0.6091564517211794,0.10860492729581164,0.46094685683745007,0.4145719781221675,1.0024117365376264,0.4124651855009019,-0.38061050565005194,-0.44433878939977084,-0.30841119884001783,-0.16611645789148055,-0.1464982458807563,-0.9484557971638319,0.7402475783678084,0.10322620018393626,0.0761738525544255,0.29846666305780223,-0.23512926245514182,-0.13624367763734238,-0.2691290230650998,0.4017013319010193,0.12614610730949863,0.2424598700016707,0.22133252812717807,0.12411167745090164,-0.28877736919789593,-0.06980907815559595,0.18315422118979077,0.22202120923943386,0.6237634759900555,-0.008408934242836485,0.05247165614016097,-0.27684299088612535,0.2414894694276384,0.10067718228168963,0.3371276672545946,-0.010873721003859025,-0.08684764642810462,-0.7292983803619444,-0.4429394540128649,-0.008565566309602918,0.6022071115167603,0.13148948802705532,0.7163990695912391,0.3919172487667717,0.28627183380996235,-0.2239226114189299,-0.09078919172778867,1.2143263498347698,0.23409348182250947,-0.36797039198539494,-1.4271323835837124,-1.5604535685818768,-0.8546267216301001,0.011242935413896907,0.7301904034073714,0.9301815165297614,0.2324049646068968,0.11480719364169086,0.0073321797361569655,0.011924116922978388,0.06891926190513868,-0.004342433923819165,-0.09359249540625517,0.2733293364144005,0.012464589188536738,-0.16855314708010805,-0.022687421385211827,0.23753089304844488,-0.02322937642353596,0.06654993699208976,-0.0370602075024587,-0.015826340556473622,0.4964539753439256,0.08601723022686165,-0.04917474492036762,0.03366923256210998,0.0043958175367433735,-0.020544501760547097,-0.18664028324871815,0.5415939057113649,-0.2536274301211121,0.25337209917611275,-0.12440211896551931,-0.40273785142860447,-0.08092377418335,-0.3111982025891783,0.9639477357793964,0.43780455311213085,0.6107371347794145,-0.013787241250212542,-0.018678434863666292,0.4734882742327277,-0.4207533006838435,0.48890567007338065,1.2737041319523075,1.0333912383523283,0.387097148135967,-0.30624997639195695,-0.7920955141665251,-0.027815044401292392,0.24884743200217524,-0.12259405170789607,0.8479014089580623,0.1638164783203379,0.2634589806162782,0.11433916900543328,-0.249812327073032,0.23248957872536796,0.6462176377463864,-0.09388210215118832,0.016196119710867814,-0.09716496808245413,-0.06715111467005265,1.3141392717893088,0.08316259412539323,1.7712349751136471,0.20028224486744417,0.03519919145559573,-0.19422043999115582,1.814063584278177,-0.003704329000549752,0.41804788156439865,-0.26255356934179064,-0.798687594687548,0.08909179465192885,0.03493535440181664,0.5835639423498123,-0.40394589059714253,-0.1520668132078963,-0.24143884349038372,0.05553949112784599,1.9443618108260863,0.15281350180665,-1.1950651890147843,0.6641897603378352,0.41645630228174746,-0.30165950709108735,0.008931398761128292,0.4362449700057925,-0.802294477153402,0.7000703570853618,0.3478953728301579,-0.18475791233627512,-0.23306533023856213,-0.20400187060778838,-0.08317970044965485,-0.26201276824076997,-0.14549147371847254,0.054072312427409966,0.04397040176775766,0.16338249116291614,0.0884897363434722,-0.031327120043097435,-0.07780421764924066,-0.1584379051295675,-0.03360488844466364,-0.4530094460139662,-0.15763840518785696,-0.06843807355963781,0.1719298953277547,0.06945719468032131,-0.9231554702478075,0.9480874460399137,0.27981379639872894,-0.06702980458388486,0.08440579268007482,0.08318732844988623,-0.295642300833738,0.03172749279065587,-0.26569489470947877,-0.05984710025025924,0.12096713376388028,0.6254133805186812,0.5369582335217491,-1.8497683344543883,0.43293046968548604,0.07347098872701802,0.08153596887237273,1.2989001005798253,-0.17231413990790864,-0.21841151636398382,0.00424587788082796,1.3203248670066994,-0.3021677988021507,-0.5543414879914679,0.24789885192446365,-0.08435373920128447,-0.006692417498527862,0.09746063259060903,0.17864391192428494,-0.0037295629219948473,-0.2069770682306263,1.2914677671699797,-0.22359887711464224,0.39409118434783974,1.2367998615597653,0.10595930772952214,0.20386650757440417,-0.03378382592980133,0.6750680518004042,0.9905842590527077,0.24806560601685992,0.3250345019010866,-0.7579104626877629,0.16789036805726956,0.28632930646721394,0.7299908347086399,-0.5428450709636439,-0.5273506012052381,0.3711333407281302,-0.5151372422022421,-0.1187688314153191,-0.08061018367733246,0.15525937709058607,0.3950324933400905,0.15322794264855383,-1.9935547750650324,0.7568384936357796,-0.2622665366847355,-0.7873812728227474,2.6192990990487224,-1.2574885118840675,-0.9346317469178375,-0.008945056775402097,0.26453843130366683,-0.50556039088718,-0.16612009807339284,-0.7325096806937283,-0.05830667271100691,1.1342824426294937,0.3905380009882824,0.11712367850605306,1.0113426795267078,-0.006586304790054566,0.3899672695525706,2.328836396410267,0.4254777516052641,-0.18453984005716467,0.20843574097445292,2.44077712707143,1.3878796512161695,1.3302170568428686,1.119913839687827,-0.11745970867073607,0.5885309859505843,1.7644847531793302,-0.06312051328059497,-0.6384172832666255,-0.9830343858914117,0.8759890012631482,0.02118428253719527,1.7257375450847414,0.4326124686285254,-0.6155537400352654,0.10868909904379122,-0.21989989624321987,-0.12780074379771478,-0.6869983592487086,0.47068060439042264,1.1443678099987162,-0.8882938107643014,0.47082991820755277,-0.8190192988058936,1.1686945939670352,2.019938956441035,-1.4679653332475344,0.013832202878800796,-0.3694250261084948,-0.3455048126093612,0.4257418223324942,-0.03913979322686221,-0.6380987748849454,0.4956122002410253,-0.050274021868921395,0.5160389676236005,2.4845978510313595,0.3042494468230248,-0.15260625807627282,0.06533433795244395,0.4751653006332537,0.31300237283671495,-1.3667831016094156,0.07874329962618742,-0.1112938738388523,0.031238818087241913,0.37224642023302795,-0.14066378790838815,0.209775058714576,1.0497913729938981,0.6052071645544478,0.5302606390430338,-0.21886213086042716,2.052711584106901,-0.17561217414158956,0.37202503836749756,-0.37159391526558905,-0.8767992802550751,0.7927034817162351,-0.1554453674447505,-0.9405722312903436,0.6115382308604267,-0.6134664154757057,1.665228616191015,1.3803512497776995,-0.04293123587942794,-1.3616047873309018,0.8564390774866522,-0.20957406546727977,0.12374455733031478,-0.762650675128092,0.19089079034881506,-0.3962578972100988,-0.5236877245457631,-0.49492153762985397,-0.4058676607511566,0.013660598253315533,-0.21363903431885833,0.11837309272815716,-0.1333463074726669,-0.08471297908828826,0.07426573580083662,0.12928057516251953,-0.19750009525365442,-0.26883662728842384,-0.20943519088906587,-0.07489003066958405,-0.20858684165084565,-0.09009811746947871,0.1799840192001381,0.17972387561303851,0.06186665433692541,-0.07525371713346127,-0.08893119676089585,0.7073843342343613,0.22316297627818701,-0.4874087871284411,-0.22008164658226856,0.1057349645645653,0.48140085905653357,0.14802179779284164,0.09474249250903312,0.1430975026183375,0.09839619774593093,0.13590471534646795,0.2823606320945715,-0.5025783236975105,-0.35990177274850166,-0.711759562341281,0.13297157445056904,-0.37030040394229924,-0.2241477263753729,1.4048670077330663,-1.2978974656827627,2.065277753289019,0.42451533834873145,0.45156524088309474,-0.7523277788119136,0.014451321166221167,-0.1773306795165092,-0.5186247239518851,-0.008634161190087534,-0.25044970698037516,-0.31593203932940234,-0.46987600326311174,-0.2572355857306012,-0.045875669183476915,-0.321235247257539,0.023131571597462708,-0.0910670173999435,0.2167358869794909,0.0002333466852640729,-0.18541531621594542,0.24976886276647545,0.5319256471125176,0.0595738645393097,0.13838153620417304,-0.3617726329801633,0.10061159977321596,0.008229360853682945,-0.7192668327539469,0.14908104135693603,-0.18748261789130075,0.121319527631989,0.10913354584177648,0.13288987242108727,-0.24639884604324494,0.638483271496594,-0.790836456405492,0.2783684330127468,0.06469313520972705,0.30384179082873525,-0.6561112159670859,0.4347197470139231,-0.027555453756734516,-0.39486160545639215,0.8552691998794796,-0.9861836165533774,0.24849921424361474,-0.28268392744998444,0.8898086533374667,0.061216242931292214,-2.175503722070153,-0.507787896215088,-1.2764663115115733,-0.14262353354543558,-1.6182381142504787,0.8526017210547764,-0.5502079975168742,-0.16093240767810582,-0.1634330372450898,0.7830074508874675,-0.033980794186360956,-0.49982461218415053,0.14293404296835063,-0.43417052186331845,-0.1880572901123831,0.4618351214750107,-1.3525660505950412,0.20173791849643974,1.1902062388446817,-0.7330458786943386,0.21131353562119748,-1.1151718676504734,-0.8235869703741902,-0.6473766730609588,0.1504897896232808,-0.578009827010488,1.0026007016960172,-0.372814078367842,-0.10824727443948488,1.3202551259355524,-0.043304952137803956,-0.5806030136420101,0.11946777138036437,0.93282714673956,-1.2433946291211038,0.008714424150345951,-0.1990028225344785,-0.6393955238370493,0.20316157312573538,0.032446985863542985,0.3042214213375836,0.19200830717520295,-0.16781913012104938,-0.10312574822799224,0.12111911083416699,-0.04631389237202263,-0.1045264563894595,0.1468513705103608,0.073406605924684,0.1634947962803462,0.03253014728967968,-0.1314470596956493,0.5135819709780156,-0.0022399005071807466,-0.3350885936140249,-0.1486039588141103,0.06376199346045076,1.4629934106696267,0.21184459399798902,-1.1191107218311058,0.5631770880625461,-0.09581920405757485,0.05584429384101616,0.05412863966559858,0.33222229543437093,-0.08424614102435553,0.716838544512756,0.8004374283572484,0.2977566151335692,0.4634568178788046,0.04988535550795901,0.7459028575536268,0.7802914955526118,0.922135102747075,1.141854510248988,0.37834749516746896,0.21194648090420412,-0.26216800460509304,-0.36376513461856286,0.38288939454651266,-2.105745616430961,0.051040205794098195,-0.40808557811589213,-1.2193290836999273,0.08927974464692083,-0.17253270183001787,0.05486866235745368,-0.036059957773781834,-0.21221145472590258,0.20069812876350773,0.26213325987331254,-0.3099115326074402,0.4499848334078678,-0.20775314842186401,0.28986550481395107,-0.1417834808346298,-0.14936998106417884,0.09527128356045395,0.08998064676410258,-0.3320509403815255,-0.15291970981847386,-0.05915215150240823,0.033159068367865356,-0.010495163478669406,-0.12039700149348853,-0.13483984130913648,0.2526601484616403,-0.03169238032278079,-0.016102581874989082,-0.04338437245445305,-0.12306555188142926,0.32630707773155165,0.11743297206185502,0.3184167772614257,0.4776933935875225,0.23650194955751036,0.1757776640924392,0.059251714209094905,-1.4807289452175945,0.23050694663596624,-0.025006012865903364,-0.536481111666329,-0.6758501635590999,-0.07121062777795358,-1.0125792386304615,-0.7524372461283789,-0.25756165668294273,-0.18304703077433046,0.011596286627489122,0.20242939713720967,0.5419658856293823,-0.07864379768503964,0.11931762189705938,-0.10504455541257897,0.26965195535737563,0.03013478532231422,0.053027217660683724,0.4310911016872439,0.10485631714101364,0.1137046089024901,-0.14474445978520661,0.49929140838431463,0.9363560853292282,0.0704146807888249,0.16605945629807953,-0.2174224512024695,-0.2938349523293949,0.7586346566072348,0.0670752080875266,-0.15889354258324587,0.36337556561035655,-0.14341660072436552,0.10067532773079711,-0.04681860895318151,-0.6022246959476073,-0.10748788177110526,0.5864096157487722,-0.14817963720299157,1.260858602666897,-0.4057797662034131,-0.010255583655044106,-0.31133234480018496,0.03360585648015428,-0.3001449175394048,-0.9200320518703667,0.564910266697325,0.030957410707582265,0.5265879470618844,-0.8623382189699744,0.4651262478367477,0.3594490583571391,0.03127862502821009,0.07335772938227227,0.3322175813650943,0.0226378166155577,-0.3887306010980448,-0.12296867543627943,0.06347630564837019,-0.24206519224645387,-0.1804302234732184,-0.20430115965595327,0.049758325056063965,-0.15879080031546444,-0.043122587569515224,0.1007961841120575,-0.02084422427039609,0.14666622465253074,-0.26092861915358706,-0.19185710490305266,-0.4774851634050734,0.33365239470129526,-0.01244410030980007,0.023177293032611058,0.34283133479365085,-0.5162466778072615,-0.08288310979659477,-0.04020148280310424,0.35721246182395794,0.14738752460671595,-0.14673132726629562,-0.09260880033424129,-0.22100987516331205,0.12970380185491157,-0.08131202905057544,-0.6904019105082511,0.34242891074492754,-0.37885567215346017,0.4679754618153345,1.5711123459357061,-1.8000186505690854,-0.06856897553482212,-2.000717725569419,0.3863969015209531,2.7208171664426875,0.2031174675991798,0.23970926658113095,-0.230015047596211,0.006082091626073637,0.16443431291522645,0.20128906440280672,0.5681519626382769,0.20548958346799132,0.03907035759151298,0.44427777964868714,0.24092812073548048,0.1822928034547846,0.2009865512666109,0.11090223467600584,-0.0915423134450328,0.019827460585420897,0.22347279441308224,0.1533795447519553,0.29583307352805716,0.06833193335305246,0.1956700137725043,-0.0982810825622928,0.0012063082518242326,0.13351401127407955,0.12551861684604032,0.08501790560149312,0.019987312680976945,-0.2487371374676794,-0.3462484830360068,0.013774049369862925,-0.318622498459196,-0.5184556719078994,-0.07057700671347808,-0.24391726100990507,-0.13119504566025114,-0.535654369852034,-0.01659218067764124,0.5131512779637505,1.2967907953350517,1.526428724716193,0.4867637860835008,0.8940039845473844,0.5712331613161089,-0.24806114426040018,0.14005120740687454,0.5416700101286133,-0.006425322540586942,-0.027575054173451647,0.31827082162114395,0.08660620393805472,0.2843453396739289,-0.0086846263012965,0.2886372509844811,0.14173841703519305,0.21938140497631065,0.24246124197903351,0.00817225456491313,-0.2691596565930667,0.34056802094453853,-0.31071221317435804,0.031349111343838845,-0.12264514465227119,0.10589007808693823,0.19145579646855712,0.11419299800183916,0.21751576729508176,0.060358146623317524,0.39925856226532164,-0.12775584450553817,0.4247232777724871,-0.5486685281846663,0.749292408507674,-0.9374104292939023,0.8244111797354904,0.07280754331919945,-0.10038697884591327,-0.19381396099346293,1.0490499265826037,-0.8374759711219677,0.1816548783961494,0.5816994141392293,-0.8435743471039878,0.5841047111919191,0.261071481028153,0.3453113923720274,-0.898440101922646,-0.019291946703243506,0.0767297185712769,-0.1272581329255385,-0.04698084278096241,-0.01588167817978662,0.15437135888493314,-0.05297473704106299,0.006717006067045955,0.07402487658175756,0.32178872468526454,0.9788244079789318,-0.13170909667198044,0.42980451978243506,-0.016548728662931816,0.06926447972343515,1.1650469085018222,-0.3536417219894728,0.44556370733199774,-0.5549209485867144,0.67611436411183,-0.36429604586329806,-0.5880015407686228,1.4733420426593677,0.6685341966487333,1.0223839204235354,-1.2722053964628495,1.1609682416723583,-0.8585421474101164,-0.26006786730145126,0.3699352169067204,0.5109567895444498,1.514609180552861,1.1676771046983028,-0.22754412814576092,-0.4278002462057343,-0.2562852606155002,-0.07189670820145382,0.4297867802951148,-0.016619754245831033,-1.589939511481735,0.5830583718368761,-0.6029456641266963,-0.2048313546502705,-0.1565296311168952,0.17842351281832272,0.11618648520085229,-0.08142322598709917,0.2481433984635391,0.4307910078332251,-0.013098537081916,0.22332904262417372,0.04476679913253722,-0.17020606549478567,0.17295380906306648,-0.016823072147934208,-0.1446695425562251,0.1791903298790908,-0.12606806661071535,-0.06987007498342802,0.1429977383715562,0.06823734875369743,0.25495075285847774,1.9171744676478064,-0.07477335124841895,1.6363076614595675,-0.45806341105184584,0.0845984530916874,-0.10472378145601476,0.9996416654866302,0.833564252724761,-0.26239448927035197,1.6581756008147497,-1.006786975575134,-0.7342110596129644,-1.7984938825277135,0.30179247151701677,0.4216040009714562,-0.6929484932727631,-0.6426430175277404,0.3119180903398763,-0.5563554148315417,-0.6134523729824528,-0.6646079236562359,-0.19854046632804728,-0.09751955263573395,-0.6566245539278984,-0.027991575921350313,0.037052025511717025,0.170551536426447,-0.2330522923422292,0.0562999479454296,-0.15396882251302565,-0.1780063128191347,-0.22062195464978582,-0.017717580383527182,0.01622172900349937,-0.3797699872773095,-0.3548191384907615,-0.32971603117950293,-0.050918112334234114,-0.6156996445774907,-0.5619651250499829,-1.3924587202294123,-0.14416574594611437,-1.0611354610749728,0.47457846981073876,0.2137272193351879,-0.5629585436012596,0.17821731846147357,-0.07957673121604934,-0.008559251510146472,-0.08972205340478202,1.797330226085804,-0.29814066845353177,0.23756575513681905,-0.7347041927925917,0.09749440151416754,0.0009805490427335839,0.6285876504241111,-1.8590877843401514,-0.8145470779649715,0.3432805710934224,0.746326925391947,0.27047936069261175,-0.5878905711532414,-0.2803026596532159,-0.37700185499871075,-1.0047971151261048,-0.44814683248380505,-0.08063321899517632,-0.04170539913204495,0.34991303214380115,-0.16645344955663066,0.1007936708840142,0.29841690159253026,0.19606004387472062,0.10798408292774798,0.08112334926727303,0.5311888591115902,0.23352557207486446,0.1718895224178436,-0.059517574305605184,0.14203580437081603,-0.12355312899119134,-0.38067532309673147,-0.1228187814493826,0.08615738869662468,-0.36874081278902854,0.0786298986158933,-0.3660362749442675,0.15199384132865387,-0.009399105009626667,0.1453629485748533,0.02835812295183839,-0.17740153996713592,-0.12737995103582617,-0.1416556751515197,0.24653984313095312,-0.33417662351601973,0.010038849319314232,-0.28211097579052724,0.4512514430984392,-0.6807306416460344,-0.3864073381587967,0.5827753403454139,-0.24322430320852484,-0.09228877500170862,0.042359022013848543,1.0025927935701175,-1.7782953108651915,-1.0580790343454207,0.4838448091503097,0.04921238090195911,0.11778831520874981,-0.04377313960557177,0.09852190442275056,0.03617610828782959,-0.13402865795665864,-0.0050294183105695925,-0.029481631589670307,0.3756418230257355,-0.02888761612952935,-0.05734993233462053,0.8062883259710761,0.480198041032711,0.20479043837774988,-0.10046621149914547,0.25183323183438727,0.32548582223136957,0.20473518849900857,1.9430699214195328,-0.09937918553985792,0.16177008348603192,-0.07444334944419972,-0.12233041346320901,-0.2713550642153267,0.9749242478197702,3.267657915630538,3.2065049270660433,0.2288568940245742,-0.11097713314618311,-0.584091348078384,-0.11644059870585513,0.9797513140921894,2.6278510871655176,0.6866352427784826,-0.5331642259780021,0.06625803631768147,1.4134232850896524,0.05577525210028451,-0.6863358758153902,0.024530050197391597,0.742976093054796,0.6495281748974103,1.2316873037399174,-0.10959916445677038,-2.6665884437233145,-0.5515229690312029,-0.10099561214160097,0.023005179709702176,-0.48002546529109524,-0.4380328721990397,-0.832529433307967,-0.12555494431742978,-0.11595022634651114,-0.03127802017389397,-0.09709228799879557,-0.05745310313319102,0.03724894284011982,0.016388849656831656,-0.5555668063289294,-0.9938837294761922,-0.12033001674573048,-0.441133094320396,-0.5366052856737115,-0.7256120968815755,-0.08175045306891425,-1.0360922143290623,1.4351623006194312,-0.261747841112961,-0.264432210555562,-0.47780090736016284,-2.0554807716699792,2.0993924646874795,-0.29185706494433605,0.38223303924628005,-0.453506178403772,-0.3955025760866088,-0.05561626924412566,0.09105044743936555,0.14020168566019356,1.6887981495683277,0.06820999646938342,0.4351780026852192,-0.8768202907742956,1.1285912878430793,0.480072546571765,-0.7208688060418718,0.19328295254384698,0.08265346503578166,-0.19059189918151329,-0.21350954292623076,0.07291978500792164,-0.24464972925965797,-0.29977482572890957,-0.28938508746732305,0.07960678048551231,-0.6400023656711958,-0.28323663527447995,0.058393475092276444,0.07602021155990633,-0.12692669903425186,-0.12472206720170557,0.17308378017314513,0.4725205008113487,0.10655824912373106,-0.42815265140679143,0.23927767941236133,0.03804506226621104,-0.24527657946183457,0.24461907651587453,0.25986339435575917,-0.0011974183185996551,-0.19290288596083083,0.04339093044378456,-0.13222836729990453,0.08235929386288207,0.04314529055397107,-0.5732036954714059,0.21943620669693617,0.7407304390842673,-0.11541191412873905,-0.6872775783313524,0.42837913804772154,-0.9677996164854034,-0.980663140649841,0.6966506761478283,1.5742545033009294,0.714823764522878,-1.173028757900546,-0.33425408038291377,0.13555297669426122,-0.4243167907626378,-0.391170915997117,-0.3217091196504499,-1.3184047799001377,-0.35406304391441185,-0.3592836534310605,0.01578730949096964,-0.19284731184083803,0.035716864741184816,-0.112040603138027,0.0018603835631085368,-2.021015102209804,0.4833481737151188,-0.07867631194891614,0.9353074109411986,-1.5641450224006044,0.21410864562215112,0.06414758966854149,-0.7562168321804246,0.09034938339153678,-0.5164864544468153,0.8619937826150886,-1.4235419327317258,0.279395519798734,0.5269282633251413,-0.8013782811887702,0.006559733749514056,0.17426692835787058,0.41820114723336393,-0.2940516440222269,1.0683231730611338,0.7234262311815205,0.9721426412097286,0.39789027832593044,-1.0384332017063442,-0.2976143991889221,0.5362061230969661,0.09535199193887052,0.45947625216943194,0.6672505591391008,0.9111384757987696,0.36892061269000453,0.10525633742506503,0.0812237574427903,0.17101818483285036,-0.16717817908390434,0.27999662230008926,0.015984993770207123,-0.062338144583685313,0.03182606627461906,-0.22517523981390272,0.09638085954569674,-0.0030441849036789014,-0.0022228928856180973,0.14275242831307572,-0.07114271634816755,0.14990375579619875,0.13664117517554006,0.06944473978147306,-0.17207302501470553,0.18342491908582906,0.2117577046404199,0.17835441020414983,0.32544882077972354,-0.028941417288842166,-0.16882913695689344,0.233374461896432,-0.06666883356811651,-0.49882307798290504,0.03913410352004042,-0.020893749577374374,-0.021231041453830597,1.3484852450381675,-0.28419488795072806,0.24231947156048572,-0.4170706077934974,0.0825845267708347,0.6645652950824719,-0.29218310870371855,0.39159805498770756,-0.8946427898462946,-0.12882220400957262,0.35690329222655814,-0.3045227550319757,0.6913510126553101,0.2172714093547904,0.5496999201382023,0.1790530042124375,0.05113914195414101,-0.20116069854813223,0.17557735767090502,0.08407205850217345,0.3847047768632713,-0.018222704812776047,0.06825595475005133,-0.10682194235346758,0.2873993142507572,0.217531774186212,0.36840436390473397,0.14403999687578095,0.15747366451163086,1.6807396469044202,0.263170218663809,0.34411207549202755,0.35596238354508236,0.07635651827419564,0.228648794885352,0.8505201702257367,1.1764388989602728,0.6009924051426293,-0.300696884046476,-0.4985575205832031,-0.4361375867761573,0.027560261067851803,-0.16504983526591044,-0.4563618990577313,0.34461171271908814,-1.6026571513438967,-0.9222806746170278,-0.02419193627804056,-0.3859839333561004,-1.2649083105456906,-0.0504386058309952,-0.5910350077440221,-0.933552236985133,-0.7790247641934398,-1.0459406261179032,0.15965582057377842,-0.6948912424774177,-0.17553466554142846,0.15502336936963032,0.022839078113295726,0.009341727455797776,-0.09881687440786145,0.03467056043103523,-0.20342093999686686,-0.29050803943434983,0.1688219368110099,-0.1204332336988857,-1.08279770581827,0.0017336381096390763,0.07953165330378324,-0.03363837278671418,-0.08023397186881256,-0.019581944626876062,-0.5825787576409962,-0.23127705925292932,-0.45360399152175424,-0.1905838172085367,-0.14424102310729264,0.24109253122366142,-0.9170221734405338,-0.147394911698302,-0.04744796858207018,-0.6257169499420955,0.2138894691349889,0.5339182134292356,-0.2764240788306381,0.7825993675327472,0.28795720524131824,-0.3515798783953324,0.06574113755944995,-0.11421507483756217,0.2161567039030894,1.3422295319769952,-1.067893044606455,-1.112238983274028,0.7448892289328395,0.5800963971407272,-0.9078371128128944,-0.5972637421205943,-0.09490255477788415,0.7207355498040954,-0.3025063673117853,0.02020864147888594,0.7246999347742475,-0.48468725437702026,-0.5428630262204878,0.6870134470465789,1.706898608417478,0.5950920803158947,1.133901052893267,4.3335834641599185,0.1282095198056839,2.624708474218502,0.5973929868335018,-0.12865206188796086,0.7351466116286965,2.091709652812162,0.6217026476321298,-0.05561594756275541,-1.1043822231468707,1.1433155747386743,0.10731604172632098,0.3620109799957184,0.4743725571853517,0.5821671439655915,0.2621444015622489,-0.08841191594026637,-0.29965565566874014,-0.17659572412629942,0.06965542805226399,2.3750556523474224,-0.22035915299967923,-0.4431723330621483,0.019586752627132702,-0.45193229526842954,-1.8940861178446027,-0.9664814317630238,0.28691928941525796,-0.287179108022157,1.1906565864630887,0.5815068295511754,-0.9771670189234517,-0.7813416930689264,1.1595539899806948,-0.09930719693612539,0.08477951385656114,0.12791484743525044,0.053402589762866735,-0.39583680183744063,0.09670942838631233,0.8644120929507507,-0.0035079109102974554,0.46470032795348404,0.07855969696505084,0.06301125947941211,0.07494732761327205,0.14460347688641387,-0.1948821852017955,2.189810135531206,0.8188611676190817,0.16129109443180473,1.5055817404307315,4.028267518460202,0.029469067600593868,1.4848680544611972,0.12486383177912254,0.5877353288037147,-0.6772680401797359,0.057248906391976655,0.8062669754500619,-0.12427903464473256,-0.05889148259848178,1.0265848008834013,-0.4124245814794699,1.6992711755040992,0.06696406143707216,-0.8086740480369209,0.8311329865590343,0.00807642579546931,0.7586120865000126,-0.3033086080921007,0.5916697247564929,-0.7351231987892497,-0.03231157838707098,1.2893837740020702,0.09048440912410187,-0.3390530653595441,0.05321468601113926,-0.13864646164667996,0.07406151279304596,0.09495682645893586,-0.38747191265066105,-0.06544878680409234,-0.043475633321744915,-0.6291096407006315,-0.09290969094815071,0.01157314402159708,-2.0699537666874837,-0.18511259719407056,-0.5767218154058668,-0.2537299068137154,-0.2027203737824147,0.37475712383420734,-0.019578265265349344,-0.6609869579492319,-0.14951577966300186,1.2552793964517144,0.2546787482804378,-0.05534184807736039,-0.6588507287532162,-0.11377416819497096,1.8366551540661553,-0.4880674877458254,0.12750967524846357,0.023986754734526737,0.748872919376753,0.7570991557437863,-0.08779545774554559,0.015392091345074478,-0.22224435901776618,-0.07724096240238817,0.19636091273220058,0.7318221835842579,0.42402981647550403,-0.21263216718846076,0.33001251270847404,0.6161803719503048,-1.5179267692357075,0.2022562758327301,0.2742061654223936,-0.0033512016401722054,-0.02088800036892514,0.0943462865097282,0.011125162968037628,-0.03567953407484364,0.12199557790238275,-0.11208217570159733,-0.12672371439464042,0.24321165481975734,0.1750027112904286,0.46284672466202564,0.15786889929820985,0.12462315199851315,-0.16969773110487804,-0.8007860406499824,0.5787063327125884,-0.2421918464026851,0.8552545354658989,0.606035277773265,0.7107764047687107,-0.22070264943993725,-0.8612289130902048,0.2603036974996565,1.6436285958831165,0.2904679397565432,1.1987409804949674,0.41696265201463806,-1.0489427563577411,0.019590170028406392,-0.4480984297502996,-0.11698767284268095,-0.02044074747543157,0.12133536510337155,0.9932072799460967,-0.5813024085562637,-0.5453502000681771,-1.6405618018873476,-1.5402641775374746,-0.487825689314954,-0.17082085115559134,-0.3039279277690392,-0.3310240300201852,0.06959815143733226,-0.26242508795265584,-0.3331516438580918,-0.2774540039070943,-0.22678651713534265,-0.06226473374220267,0.11599882158856152,0.03929541100914507,-0.26530269651846305,0.17128416723519177,-0.05477628879150203,-0.05026301424066403,-0.15720367255664575,0.15239892565273186,0.061714729569107195,-0.09696804345884172,-0.4659106237357167,-0.45225511066674984,0.07245827281278082,-0.18202689681372514,-0.5551973292353898,0.08233378381305759,0.07663319189484118,-0.007531433998199476,0.08403771156046416,1.3714537193932603,-0.1877581944870413,-0.2399129212893615,0.24113103433928418,0.3322706684177659,-0.2530388645908423,-0.6374009246800446,0.5447853585941382,-0.8063220926265044,-0.3797098900479953,0.806400518383627,0.3726319232245263,0.5534492706640353,1.0675182155609162,1.0645149424549452,0.0481228453958909,0.3444438447854619,0.10592067630634992,0.14451149760205023,0.23472667445260972,0.1071517672494771,0.20551494215040475,0.30357293348144343,0.019297089539993754,0.13430961155833568,0.13228942728619017,-0.015417271021498575,-0.09460809339667618,0.03398820111888124,-0.22401280999730397,0.3942801189641236,0.26986010605753213,0.1938660682242405,-0.1350407784171499,-0.2140064504191765,-0.34157201499452233,0.13428633139425109,0.19673522800442356,-0.1758398423801292,-0.4307574468343062,-0.01931256202131661,-0.0886055013928891,-0.09979476244786077,0.20285500492811812,0.043081409989209035,-0.04829907890407007,-0.4630657599105995,-0.294849063074517,0.1458153868294527,-0.06774672025307782,0.19417652426556276,0.2168194017502045,-0.7606729536606806,1.2672864676459936,-1.2084915292490683,-0.12182185052861438,-1.4845701195280092,0.6459091274031421,-1.0725162915671471,-0.16298260199713485,0.16841070030147534,-0.14246909428610138,0.6978377243404206,0.0013451927175183733,-0.20828772413405208,0.24347592372729285,0.047068032235402506,0.6937510560756742,0.1392229633840024,0.08083959349579067,0.5658793586730941,0.0819645378754438,0.9436516867586885,0.2667849466052831,0.8920464071160197,2.3361530432328577,1.2186351898672034,-0.04305386906790611,-0.05529156573446781,0.7257218305270408,0.2311792370806132,-2.3876451393267932,2.6128653874951566,1.0027265078679821,0.2316861385040982,-0.3500751359863978,-0.6459277433027188,-0.20312628989636958,0.43467864153488023,0.9003295340501027,2.057353307875483,0.5881597372808358,0.4407575781247244,-0.5067587637146186,1.1833286965612508,-1.3999583436701348,1.5975762725821783,-0.39242226143588826,-1.6861718265253443,-2.7416407586038134,0.5941682466376959,0.5548735702484532,-0.4444986161207634,-0.03278830619513327,-0.0669237830451293,0.14681357548345886,-0.003187709930432111,0.21554033798188732,-0.13257269359899837,0.036240283414623486,-0.25502521947535634,0.2071195759985683,-0.03361007144477003,-0.2753980961241067,-0.260254749396797,-0.22577252908321302,0.37770660539114753,0.10417956651152228,-0.16078611652692737,0.0597901416581822,0.04732742845399554,0.02978329947144289,-0.44016483472895845,-0.25331322073480195,-0.07163110636991497,0.2598659737469736,-0.3246115729967262,-0.07617518035144002,-0.24379986912637275,-0.265379547067623,0.4950981280535575,-0.06938137671777783,0.1374736684835463,0.21953692539392786,-0.19264587966497201,-0.012202000556038773,-0.4558295109014215,-0.6143098490755473,-0.546054529604145,-0.07054900878260305,0.3873329599490699,0.23800349723145708,-0.21873786814849003,-1.042260861727188,1.2958455269721332,0.5455336255464752,0.16127616173160383,-0.0779718428309672,-0.11573567111438104,-0.654593499892566,0.0011761224765478048,-0.0881074982236542,-0.5935631645553642,0.10952140702705097,0.11212544876406261,-1.49934146826127,0.21096325420316472,0.44897959062698356,-1.1140142912766686,-1.4706520127716265,-0.9906201912943852,-0.762411772930571,0.21878159103304934,-0.14046925970317267,0.40066425140125855,-0.43093079120315303,-0.044786047584537816,0.7703022868360806,0.7977997375998847,0.3609164723882095,-0.2929582740858912,-0.30280907736180596,0.2979415334564494,1.0158905788677006,0.14970116809680492,0.4380064982840021,1.110830192426225,-0.8676394891182275,-1.0815556251882619,-0.031974971205612594,0.16248070705171522,-1.199042703068606,-0.4207632676844561,0.33633857476296636,0.8722197476535616,0.5121092452306311,0.7916204421446272,-0.1340382496210039,-0.5816923914649131,0.18455741375956766,0.2473480644647688,0.13257644773444013,0.06036404533141299,-0.08068522960691475,-0.07851495498416775,0.0471168899730487,0.15684867086379803,-0.01497497163358766,-0.08822493595574377,-0.1454511934116755,-0.019726013745608315,0.10827976156547213,-0.12875633360627625,0.0854497908886633,0.043497529524351,-0.33406463685312277,-0.17159386666302676,-0.13872495325263798,-0.10307889580623271,-0.3783492120067791,0.07926505467242312,0.5963668280589095,-0.3634023014813406,-0.24225099203407166,0.47246874847220155,-1.026337255761042,0.18477706106475406,0.17256313545194324,0.6993644456001338,0.017751146233051684,-0.36115771254300655,-0.3182194682113302,-1.0599755951070782,0.2591751171144123,0.1760644671160058,-0.0034850163592663715,-1.3422691484530085,-0.49067082630014724,-0.22405256480180016,1.1094553544352677,0.9799137341531365,1.0563793348078785,-0.15647048749307116,-0.005661032193238151,-0.2625703690880928,-0.7881760872076566,-1.5438375565234395,-0.39994232431906135,0.22668534843308813,-0.11040406472310713,-0.38864253295417983,-1.9345258072041547,-0.11690644799326967,-1.6919335292061233,-0.8702147039886763,-0.5993387846513386,-1.8851381866139199,1.0548465430702056,0.8543706763603135,-0.41139221442968554,-1.6142809205576236,-2.8672914133132186,-0.17642310644239387,-1.5823941026677506,-0.8017285805226247,0.20028650390460354,-0.08365841121887627,-0.5317438814748647,0.17657090266401923,-0.20084871496128948,-1.2486868924759176,0.3896749292285653,0.3934771259217807,-0.2747241302328237,1.2526045329798456,-1.4976887634158165,-1.0953809979612794,-1.8009220812283862,-1.0809878681178657,-0.4765224822323899,0.12199280098701135,-0.007611243545333022,0.09380716865306014,0.58584396621941,0.14055090228966002,0.4939836992270166,-0.511197101370521,-0.5016213598929653,-0.8834654506804313,-0.15078706370823058,0.2713809782579904,-0.36215859846297926,-0.9073175803276957,0.14864312016722753,-0.7129725692782557,-0.327112842250638,0.2989479260876418,-0.09634177585603146,0.7371110187708979,-0.7062629369449107,-0.527354652339084,-1.9646638613379028,-2.1269631383155643,0.35117355869436395,-0.14207815554373135,-0.5458598522413824,-0.026511245418343855,-1.3399078257305568,1.8307978843830206,1.384459028675322,0.9959490486275168,0.04235804620233744,-2.0459690484581055,-0.45383006713867763,-0.15565550662089642,0.8064294347507915,-0.6285635104694594,-1.5359890330518713,0.31961487787986376,0.10929440350738845,-1.1480702368332079,-0.4008581147182571,0.11616959038327036,-0.22276042746178976,-0.9506091965811676,0.3284022641482173,0.39604618659871393,-0.4552027576696562,-0.004791752647140009,0.0604363909861945,0.11529788103595842,-0.18119891335615196,-0.05489528918452537,0.34921651708632134,0.3134232198619186,0.5136384775954793,-0.04370311087369372,0.06349816358924047,-0.09167524544176067,0.16965117505118618,0.2347078916016263,0.39011652723346324,0.3911092844823955,0.1027839932701512,0.0969332997785128,0.7134555759669583,0.703558526207449,0.18408828623855827,-0.5908101812019463,-0.2665574284933768,0.4984216863542013,-0.9636544289058606,-0.09244649190843579,0.27920309638698465,0.7248126514743907,-0.0522061993010436,-1.4810670058394029,-0.42512436080916854,0.4114002709119358,-0.20010500359623196,0.29497449361308836,0.422500560452095,0.3635457211780188,-0.39006051416621035,-0.29767241383311555,-0.5260515726230625,-0.2322707937783879,-0.5180983651288323,-0.32892064387092435,-1.2478908092337044,0.11245953535059595,-0.5862747805391127,0.1754485214866696,0.37860473260404454,0.9490042696598039,0.29417860892768843,0.725134062808729,-0.1437405576918892,-0.20291870258643055,0.09864276543901988,-0.1700729655960461,1.6018517246657469,1.0147561406012655,-0.08433537080845642,0.060799464426907486,0.4025468246789309,-0.004323489726112891,-0.1300762333982874,0.9137455965540026,-0.9893363288468309,-0.3360861399030165,0.24997443055723306,-0.0091338530250614,-0.053881279311934385,1.5402435755491626,0.6971581497073576,-0.31099050961412267,0.5973777557281936,0.615526332040824,-0.05332612750282505,-0.2064147338499725,-0.34422362038264454,-0.42630935888074367,0.9589701866113571,0.4778885932219522,1.0489343911516944,-0.5714289561968094,-0.9749389263270264,0.2404845681301443,-1.749128132782126,0.15459912773598267,-0.3482799067934249,-1.7184745421078638,0.25276814314752516,-0.1601581497201589,-0.13694416201108411,-0.7558382742489919,0.22443712671857555,-0.08537994996717878,-0.4346234154700017,0.10596648660515451,0.049469107092124195,-0.07943534471921468,0.026358915786328384,0.08238503633038001,0.07254870267922676,-0.15923608474613746,-0.1562984619064753,-0.10349070098849288,0.030196238793261502,-0.09574473187826153,-0.18381034800766471,0.09135737130414523,-0.06901070117332529,-0.2729838455615164,0.01780769809256112,-0.29166352601917556,-0.2974663601605508,-0.04098957461485909,0.05312717355695137,0.009896303472681393,-0.2693010282051428,0.14157887757544912,-1.1714895483002579,-1.648608219299567,-0.41247794202910965,0.8713323076818525,0.12414961995545114,-0.5551106216561006,-0.0413198591148513,-1.343704338756201,0.8004229362361347,0.7313987739830584,0.08529882165116366,-0.7246022968864427,0.6983775630826238,-0.6035961801155514,-0.05234972663309691,0.014293674146651019,0.010468331105703575,0.24920835049904538,0.20136898122425048,0.2099246626348432,0.9618742828630884,0.2648730332334796,-1.007024380266468,0.35293385676284583,0.16150236745631968,-0.07793240758005222,0.11212504770185472,0.19120942135607288,0.44143276223143,5.006732494220668,0.2773983685818105,-0.027940443290098208,-0.05227607282980882,-1.274078103157287,-0.009701900915357674,1.1308036166120472,3.805055198657935,0.6752921959752508,0.2631166551334295,-0.1507085558349829,-0.9960924710994921,0.04768401231436247,1.2024581081177022,-0.41755043308285833,0.6423022214692491,0.456461013238318,-0.5106182998700094,-0.5553450930118395,0.593816006744002,0.6242972452474254,-1.1438679027042469,1.1745343871959557,0.18820734935323147,-2.6726323628851705,-1.8243297978092532,0.9628906820741787,0.4053107923413965,-0.07345925988654416,-0.16544962661548296,0.5870639820047356,-0.15010785614439418,0.14632259458267782,-0.014596653338854598,-0.19764486840659234,0.006925577254100419,-0.17603861311029168,0.1072236910029767,-0.28325967966191434,0.06360342211831507,-0.4918269751309718,-0.16913076605560398,-0.14263268127523043,-0.31284947392418044,-0.09568191062025597,0.27568565499442854,-1.0297556158700247,-2.3911100594761465,-1.1130083886987492,0.11620203039208069,0.6043466180058643,-1.0658646755372216,-2.654635699039464,0.6930816469460046,-0.7400627079603335,-0.35599146311527957,-0.09513116057939858,-0.295421985432194,0.0786578854789448,1.0387897396453314,0.221457049019384,1.76137767022372,0.5547882157592234,-0.11449206960501326,0.29668274367230624,-0.6229567118484582,-0.26209497977408597,0.0011161506401082975,0.3515798586093334,-0.4219939843506279,0.524658946641317,-0.233553183248245
biasActivation=0,1,1
[BASIC:ACTIVATION]
"ActivationTANH"
"ActivationTANH"
"ActivationLinear"
